svm_type c_svc
kernel_type rbf
gamma 0.005
nr_class 2
total_sv 471
rho 0.547088
label 1 -1
probA -2.5298
probB -0.00749829
nr_sv 177 294
SV
8.602824286430828 1:0.1355 2:-0.3721 3:3.5193 4:-0.75 5:-0.2832 6:-4.4254 7:1.0597 8:3.0207 9:4.5695 10:-0.5234 11:0.3162 12:4.2691 
10 1:0.7071 2:0.1355 3:-1.6321 4:0.4445 5:-0.2335 6:-1.7002 7:1.0597 8:-1.1679 9:0.2914 10:0.7071 11:1.4491 12:0.1355 
10 1:-3.1174 2:-0.4629 3:0.1936 4:0.2007 5:-1.5046 6:-1.7002 7:-2.2058 8:-1.2728 9:-1.7428 10:0.3939 11:-0.6211 12:-2.4769 
1.185615583173918 1:18.6574 2:33.9523 3:-0.75 4:0.2535 5:23.25 6:6.5655 7:8.1803 8:42 9:33.6783 10:29.263 11:14.1681 12:22.311 
1.279215348991316 1:1.0142 2:33.9523 3:1.9064 4:6.9387 5:23.25 6:6.5655 7:8.1803 8:42 9:33.6783 10:29.263 11:14.1681 12:22.311 
1.529291183919322 1:18.6574 2:33.9523 3:1.9064 4:6.9387 5:23.25 6:6.5655 7:8.1803 8:6.6408 9:1.1619 10:29.263 11:14.1681 12:22.311 
10 1:4.4367 2:3.2796 3:-0.2535 4:6.1664 5:20.831 6:2.4702 7:8.1803 8:0.3644 9:-0.7379 10:2.4673 11:14.6296 12:-0.9487 
1.480154717996887 1:66.0916 2:40.7829 3:0 4:11.494 5:20.831 6:2.4702 7:8.1803 8:21.4996 9:46.9598 10:4.6476 11:1.1934 12:8.7061 
1.536440564864084 1:2.7111 2:33.9523 3:1.9064 4:6.9387 5:23.25 6:6.5655 7:8.1803 8:6.6408 9:1.2563 10:3.5193 11:14.1681 12:22.311 
10 1:-1.0849 2:0 3:0.7379 4:-0.7047 5:-1.9261 6:-4.4254 7:-2.8062 8:1.8974 9:1.8974 10:0 11:1.8974 12:0.1355 
10 1:5.4303 2:1.2414 3:1.2563 4:1.2131 5:-0.5421 6:-3.5305 7:1.0597 8:1.4491 9:1.7437 10:4.2685 11:2.3286 12:1.4908 
10 1:18.8729 2:7.3788 3:1.2728 4:0.4684 5:2.7111 6:-1.7002 7:-1.7095 8:1.5811 9:0.3278 10:1.914 11:1.73 12:1.7291 
10 1:3.725 2:6.6408 3:5.9632 4:7.5032 5:10.2247 6:4.8045 7:-1.5522 8:7.1587 9:3.8307 10:4.9152 11:7.0162 12:8.749 
10 1:1.2197 2:-1.3604 3:0.2535 4:0.4684 5:0.6211 6:-2.3043 7:1.8589 8:5.5895 9:1.0607 10:-0.7115 11:0.3939 12:1.4491 
2.447794441657538 1:-1.1078 2:7.3788 3:1.5791 4:24.2592 5:20.831 6:2.4702 7:-4.2061 8:-0.4568 9:0.5593 10:2.4673 11:1.2247 12:0 
9.207696658368501 1:2.2883 2:3.5193 3:1.2728 4:0.5411 5:2.789 6:-2.5959 7:-5.921 8:0.5112 9:3.4325 10:1.9588 11:-1.0603 12:0.2587 
10 1:0.3162 2:0 3:0.1142 4:2.5187 5:0.9487 6:10.6225 7:-4.2061 8:0.75 9:-1.4767 10:-0.6613 11:1.8974 12:-0.6396 
4.147649530242066 1:2.9642 2:5.0596 3:5.4611 4:1.3887 5:6.6408 6:1.482 7:-4.2061 8:-0.5937 9:3.3359 10:1.792 11:3.047 12:2.846 
10 1:-0.414 2:0.4743 3:1.6602 4:-1.0349 5:-0.143 6:-2.1249 7:-0.7878 8:0.5721 9:-1.4661 10:7.7533 11:0.4445 12:0 
3.275666370844251 1:2.1213 2:4.4272 3:-0.6325 4:0.8018 5:4.9497 6:0.303 7:0 8:1.8067 9:6.6408 10:0 11:-1.2872 12:4.9497 
2.480350474197811 1:2.9642 2:5.0596 3:5.4611 4:1.3887 5:6.6408 6:1.482 7:-4.2061 8:-0.9939 9:0.8581 10:1.792 11:3.047 12:9.1706 
10 1:-1.0607 2:-0.4629 3:2.9162 4:1.4491 5:0 6:6.5655 7:0 8:-0.1936 9:0 10:-0.281 11:-0.1519 12:1.3887 
10 1:3.725 2:4.0591 3:-0.4629 4:1.3703 5:0.2832 6:4.8045 7:1.8589 8:-0.2798 9:0.2397 10:0.1936 11:-0.4278 12:0.4743 
10 1:0.4445 2:-0.75 3:1.8974 4:1.65 5:0 6:-1.4991 7:1.8589 8:-0.9791 9:-0.9606 10:-0.9299 11:1.8974 12:0 
10 1:-0.905 2:-0.9188 3:-1.5989 4:-0.4629 5:-0.3721 6:-2.3043 7:-1.7095 8:0.8581 9:-0.4743 10:-0.1936 11:-1.614 12:0 
10 1:2.846 2:-0.75 3:0.7071 4:0.8581 5:0.1355 6:2.4702 7:8.1803 8:-0.9939 9:-1.3703 10:-0.0835 11:-1.3044 12:0.5721 
10 1:-1.1116 2:-0.3985 3:-0.6325 4:-0.9139 5:-0.8503 6:4.8045 7:-4.2061 8:-0.4568 9:-1.587 10:-0.5582 11:0.3939 12:-0.9487 
1.159578872692076 1:32.5021 2:50.2802 3:12.9904 4:24.2592 5:5.7755 6:0.0971 7:-0.2746 8:11.8154 9:11.8154 10:0.1142 11:2.7111 12:11.0709 
0.4116298233763281 1:0.0777 2:7.3788 3:1.5791 4:24.2592 5:20.831 6:2.4702 7:-4.2061 8:-0.4568 9:0.5593 10:-0.6613 11:-0.5593 12:-1.1979 
0.3027518949475323 1:18.8729 2:7.3492 3:3.9821 4:5.1208 5:30.1771 6:10.6225 7:11.0045 8:6.7516 9:7.2846 10:4.2756 11:-0.8503 12:2.288 
1.398857665600574 1:14.4411 2:12.2997 3:-0.6617 4:6.1664 5:6.8133 6:1.482 7:8.1803 8:21.4996 9:20.2849 10:22.9039 11:23.261 12:20.1934 
10 1:3.725 2:6.6408 3:5.9632 4:7.5032 5:10.2247 6:4.8045 7:-1.5522 8:7.1587 9:3.8307 10:4.9152 11:7.0162 12:8.749 
10 1:0.4445 2:-0.3162 3:-0.6211 4:1.4491 5:-0.9167 6:0.0971 7:1.0597 8:0.9791 9:0 10:7.7533 11:0.0578 12:-0.8581 
10 1:13.239 2:3.5355 3:6.9714 4:-0.9188 5:0 6:-1.7002 7:1.8589 8:1.8974 9:-0.75 10:4.2691 11:1.8974 12:1.2247 
10 1:0.6995 2:3.0984 3:1.2272 4:-0.2176 5:0 6:-0.4445 7:1.0597 8:-0.3721 9:3.5193 10:-0.75 11:-0.8549 12:-0.3162 
1.242088662283025 1:18.8729 2:7.3788 3:1.5791 4:24.2592 5:20.831 6:2.4702 7:-4.2061 8:-0.4568 9:0.5593 10:2.4673 11:-1.3887 12:0.1762 
2.514374543134311 1:2.9642 2:-1.9023 3:-3.4011 4:-1.8371 5:30.1771 6:10.6225 7:11.0045 8:6.7516 9:-0.2554 10:-0.1936 11:-0.5593 12:-0.7746 
10 1:0.905 2:-1.057 3:2.3941 4:0.2007 5:3.5193 6:-2.1249 7:5.7816 8:7.1785 9:2.1213 10:1.4491 11:1.0371 12:-0.3644 
10 1:2.9642 2:6.9714 3:-0.5234 4:0.5721 5:1.8974 6:-1.5885 7:-2.575 8:-2.575 9:-2.0545 10:-1.921 11:-2.5927 12:-2.5451 
3.856076018660681 1:13.239 2:20.0446 3:2.2883 4:1.9696 5:-0.4196 6:1.482 7:0 8:5.0349 9:5.0349 10:5.0349 11:1.7321 12:1.271 
1.843454706293655 1:66.0916 2:0.4445 3:1.2872 4:1.9696 5:4.7434 6:4.8045 7:-2.2058 8:0 9:2.9993 10:4.0089 11:9.7571 12:2.0447 
10 1:1.4491 2:-0.5145 3:0 4:1.3703 5:-0.2176 6:0.0971 7:8.1803 8:-1.8067 9:-0.3162 10:-1.921 11:-2.5927 12:-2.5451 
10 1:-0.9091 2:-0.8581 3:-0.2832 4:-0.9139 5:-1.4491 6:-1.7002 7:8.1803 8:0.8178 9:-2.0545 10:-1.921 11:-2.5927 12:-2.5451 
10 1:1.2197 2:-1.2649 3:6.0083 4:1.1619 5:-1.0386 6:-4.4254 7:11.0045 8:0.1355 9:-0.2587 10:-0.5883 11:0.5721 12:0.2176 
10 1:-1.1911 2:1.3059 3:-0.7115 4:0.2007 5:3.5193 6:-2.1249 7:-1.2872 8:1.4491 9:2.1213 10:0.5721 11:1.8974 12:2.846 
5.693444904186754 1:18.8729 2:-0.1142 3:0.2535 4:-0.8874 5:3.4325 6:4.8045 7:-2.8062 8:-0.3985 9:-1.3699 10:0.414 11:1.8974 12:0.7071 
6.709922878608394 1:-0.6037 2:0.8706 3:3.5193 4:2.846 5:6.6408 6:-5.3847 7:-1.5095 8:0.2832 9:-0.6396 10:-0.4743 11:-0.5582 12:1.8974 
10 1:-0.3162 2:1.9261 3:-1.646 4:-0.7997 5:0.6211 6:-2.3043 7:-4.2061 8:0.75 9:1.1062 10:-0.1936 11:-0.1627 12:-0.2587 
3.809197957958479 1:-0.3162 2:-0.5145 3:2.1118 4:0.3721 5:1.4491 6:-4.2156 7:-1.5522 8:1.4908 9:11.8154 10:-0.8296 11:1.1619 12:1.0371 
0.4127161530454486 1:13.239 2:3.5355 3:6.9714 4:0 5:7.7782 6:6.5655 7:0 8:0.2243 9:-0.3408 10:-1.0814 11:2.846 12:11.0709 
10 1:2.0023 2:0.1142 3:-0.3803 4:5.0349 5:-0.7379 6:1.482 7:-2.2058 8:0.8581 9:0.1006 10:-0.1355 11:1.0371 12:8.7061 
10 1:0.5721 2:-0.6608 3:0.1142 4:-1.5213 5:2.7111 6:-1.7002 7:1.8589 8:1.057 9:0.069 10:-1.3586 11:-0.1006 12:0.4743 
10 1:0.3644 2:1.3887 3:1.8974 4:0 5:2.7111 6:-1.7002 7:1.8589 8:1.057 9:0.069 10:-0.1936 11:-0.1103 12:0.2176 
3.317384823866808 1:0.7746 2:0.7109 3:0.4568 4:5.5895 5:2.1268 6:0.0971 7:-1.5095 8:1.6036 9:9.1706 10:0.3939 11:-0.6211 12:1.1062 
3.70612661778903 1:4.4367 2:3.2796 3:1.0462 4:-1.4356 5:1.3703 6:-2.3043 7:1.0597 8:-1.0142 9:-0.1936 10:2.4673 11:14.6296 12:-0.2914 
0.5106679495407568 1:0.3644 2:1.9261 3:0.1936 4:5.0349 5:-0.4743 6:2.4702 7:-5.921 8:0.9487 9:0.5721 10:13.1235 11:1.8974 12:-0.2587 
10 1:1.8974 2:1.8974 3:-0.9296 4:-0.2429 5:-2.4223 6:4.8045 7:-2.5752 8:2.4244 9:0 10:-0.281 11:-1.2792 12:-0.8581 
10 1:0 2:6.0083 3:2.846 4:0.1006 5:0.4445 6:-2.5959 7:-2.5752 8:0.2535 9:-0.3162 10:0.7746 11:0.6211 12:-1.0386 
10 1:1.4491 2:-0.1762 3:-0.4629 4:0.4445 5:-1.0279 6:2.4702 7:-4.9663 8:0.2535 9:1.5 10:-0.6608 11:0 12:0 
10 1:0.905 2:0.4445 3:3.007 4:0.3162 5:0.4743 6:0.0971 7:-4.9663 8:0.9487 9:0.1355 10:11.7527 11:-0.2798 12:-0.8706 
3.087169176892518 1:3.5355 2:12.2997 3:5.25 4:10.3929 5:7.8667 6:4.8045 7:1.0597 8:3.0207 9:4.5695 10:7.5523 11:0.6363 12:9.0125 
1.222043987771169 1:3.5355 2:12.2997 3:5.25 4:10.3929 5:7.8667 6:4.8045 7:1.0597 8:3.0207 9:4.5695 10:7.5523 11:3.5193 12:-2.5451 
10 1:-0.4684 2:1.3703 3:1.4661 4:-0.2429 5:0.3162 6:-3.5305 7:-1.7095 8:-0.8027 9:-0.5582 10:-0.3162 11:-0.4684 12:0.8581 
10 1:-1.119 2:-0.9167 3:1.4661 4:-0.6599 5:-1.0575 6:-4.4254 7:-5.921 8:-1.3703 9:-0.2554 10:-0.1936 11:1.8974 12:0 
10 1:-0.9299 2:-0.8549 3:0.7746 4:1.1619 5:-1.9261 6:0.0971 7:5.7816 8:-0.3093 9:-0.1936 10:0 11:-2.5927 12:-2.5451 
10 1:1.1619 2:0 3:1.9064 4:-1.7265 5:-0.3693 6:-1.4991 7:8.1803 8:0.8178 9:-2.0545 10:-1.921 11:-2.5927 12:-2.5451 
10 1:1.4491 2:-0.4629 3:-1.6953 4:-0.0835 5:-0.073 6:-1.7002 7:-2.575 8:-2.575 9:-2.0545 10:-1.921 11:-2.5927 12:-2.5451 
10 1:13.239 2:3.5355 3:1.1068 4:0.6508 5:0.2657 6:-4.4254 7:-2.5752 8:2.3984 9:0.2914 10:0.7746 11:0.6211 12:0.6608 
10 1:13.239 2:3.5355 3:1.1068 4:0.6508 5:0.2657 6:-4.4254 7:-2.5752 8:2.3984 9:0.2914 10:0 11:-0.0909 12:0.7071 
1.365903277240942 1:13.239 2:20.0446 3:26.0361 4:-0.3962 5:3.0832 6:-1.5885 7:-2.8062 8:1.0849 9:3.4077 10:2.3941 11:0 12:4.6476 
10 1:-0.6037 2:-1.7428 3:-2.6352 4:0.3721 5:0.3644 6:1.482 7:-1.7095 8:1.4491 9:0.7071 10:-1.921 11:-2.5927 12:-2.5451 
10 1:18.8729 2:7.3788 3:1.2728 4:0.4684 5:2.7111 6:-1.7002 7:-1.7095 8:1.5811 9:0.3278 10:1.914 11:1.73 12:1.7291 
10 1:0 2:-0.1762 3:0.9487 4:11.494 5:-2.2266 6:0.5957 7:-1.5095 8:1.8974 9:0.5883 10:-0.0835 11:1.7321 12:-0.2657 
10 1:-0.1936 2:0.9487 3:0 4:0.0558 5:0.2535 6:-3.5305 7:-4.2061 8:-1.3024 9:0.4743 10:3.7185 11:0.3162 12:0.2832 
10 1:0.2963 2:0 3:0 4:0.1235 5:0 6:-1.7002 7:-4.9663 8:-0.9167 9:1.4491 10:2.846 11:0 12:-0.2007 
0.636420335402503 1:8.9079 2:8.9079 3:1.4661 4:-0.3721 5:7.7782 6:6.5655 7:1.8589 8:9.9704 9:0.8706 10:7.7533 11:1.358 12:2.992 
10 1:2.7937 2:3.5911 3:3.9821 4:4.3257 5:12.3329 6:10.6225 7:5.7816 8:7.1785 9:5.6832 10:8.0178 11:1.8091 12:12.5083 
10 1:5.4303 2:24.8973 3:4.7411 4:2.0283 5:3.9165 6:0.5957 7:1.0597 8:1.792 9:3.7918 10:4.2685 11:3.4205 12:4.8789 
0.5750632165215689 1:18.8729 2:7.3492 3:3.9821 4:5.1208 5:30.1771 6:10.6225 7:11.0045 8:6.7516 9:7.2846 10:3.7185 11:0.4743 12:8.8997 
10 1:-0.3721 2:-0.3693 3:10.1135 4:6.1664 5:6.8133 6:1.482 7:8.1803 8:21.4996 9:20.2849 10:22.9039 11:23.261 12:20.1934 
10 1:2.7937 2:3.5911 3:3.9821 4:4.3257 5:12.3329 6:10.6225 7:5.7816 8:7.1785 9:5.6832 10:8.0178 11:1.8091 12:12.5083 
10 1:5.4303 2:24.8973 3:4.7411 4:2.0283 5:3.9165 6:0.5957 7:1.0597 8:1.792 9:3.7918 10:4.2685 11:3.4205 12:4.8789 
10 1:14.4411 2:9.2486 3:10.1135 4:6.1664 5:6.8133 6:1.482 7:8.1803 8:21.4996 9:20.2849 10:22.9039 11:7.0162 12:1.5791 
10 1:5.4303 2:1.2414 3:1.2563 4:1.2131 5:-0.5421 6:-3.5305 7:1.0597 8:1.4491 9:1.7437 10:4.2685 11:2.3286 12:1.4908 
10 1:2.7937 2:3.5911 3:3.9821 4:4.3257 5:12.3329 6:10.6225 7:5.7816 8:7.1785 9:5.6832 10:-0.3644 11:-0.8503 12:12.5083 
10 1:5.4303 2:24.8973 3:4.7411 4:2.0283 5:-0.2535 6:-1.5885 7:1.0597 8:1.792 9:3.7918 10:4.2685 11:3.4205 12:4.8789 
10 1:-0.7218 2:-1.3887 3:3.9821 4:5.1208 5:30.1771 6:10.6225 7:11.0045 8:6.7516 9:7.2846 10:4.8893 11:1.2414 12:8.8997 
10 1:4.8893 2:1.9696 3:10.1135 4:6.1664 5:6.8133 6:1.482 7:8.1803 8:21.4996 9:20.2849 10:22.9039 11:23.261 12:-0.1355 
10 1:3.725 2:6.6408 3:5.9632 4:7.5032 5:10.2247 6:4.8045 7:-1.5522 8:7.1587 9:3.8307 10:4.9152 11:7.0162 12:8.749 
1.461479162344164 1:13.239 2:20.0446 3:26.0361 4:0.6037 5:0.8706 6:1.482 7:0 8:5.0349 9:5.0349 10:5.0349 11:1.7321 12:1.271 
1.519824118122869 1:4.4367 2:9.2486 3:-0.2007 4:1.9696 5:4.7434 6:4.8045 7:-2.2058 8:0 9:2.9993 10:4.0089 11:9.7571 12:2.0447 
1.334259501229635 1:20.871 2:33.9523 3:8.9663 4:18.5476 5:23.25 6:6.5655 7:8.1803 8:42 9:33.6783 10:29.263 11:14.1681 12:22.311 
9.997368808589632 1:20.871 2:33.9523 3:8.9663 4:18.5476 5:23.25 6:6.5655 7:8.1803 8:42 9:33.6783 10:29.263 11:14.1681 12:22.311 
1.480026807049652 1:66.0916 2:40.7829 3:0 4:11.494 5:20.831 6:2.4702 7:8.1803 8:21.4996 9:46.9598 10:25.6144 11:14.6296 12:8.7061 
2.684319304265795 1:-0.3162 2:6.9714 3:0 4:1.4491 5:2.6913 6:10.6225 7:-0.7878 8:0 9:3.0984 10:18.6736 11:1.2247 12:0 
8.374476584123523 1:2.2883 2:3.5193 3:1.2728 4:0.5411 5:2.789 6:-2.5959 7:-5.921 8:0.5112 9:3.4325 10:1.9588 11:-1.0603 12:0.2587 
2.913740284699817 1:6.0083 2:3.5911 3:-1.3072 4:0.1458 5:3.4325 6:4.8045 7:-2.2058 8:2.1213 9:2.2883 10:1.6602 11:1.057 12:1.3059 
2.074824460774703 1:2.1213 2:4.4272 3:1.9261 4:-0.5234 5:4.9497 6:0.303 7:0 8:1.8067 9:6.6408 10:-0.2832 11:-0.8503 12:4.9497 
10 1:2.2883 2:-0.8262 3:1.8974 4:3.0984 5:0.7746 6:-1.4991 7:-5.921 8:0 9:0 10:-0.9299 11:1.2563 12:1.2563 
8.399606673147984 1:2.9642 2:5.0596 3:5.4611 4:1.3887 5:6.6408 6:1.482 7:-2.5752 8:2.3984 9:1.0607 10:1.792 11:3.047 12:9.1706 
10 1:5.4303 2:1.2414 3:1.2563 4:1.2131 5:-0.5421 6:-3.5305 7:1.0597 8:1.4491 9:1.7437 10:4.2685 11:2.3286 12:1.4908 
10 1:2.7937 2:3.5911 3:3.9821 4:4.3257 5:12.3329 6:10.6225 7:5.7816 8:7.1785 9:5.6832 10:8.0178 11:1.8091 12:12.5083 
10 1:2.7937 2:3.5911 3:3.9821 4:4.3257 5:12.3329 6:10.6225 7:5.7816 8:7.1785 9:5.6832 10:8.0178 11:1.8091 12:12.5083 
10 1:5.4303 2:24.8973 3:4.7411 4:2.0283 5:3.9165 6:0.5957 7:1.0597 8:1.792 9:3.7918 10:4.2685 11:3.4205 12:4.8789 
10 1:18.8729 2:7.3788 3:1.2728 4:0.4684 5:2.7111 6:-1.7002 7:-1.7095 8:1.5811 9:0.3278 10:1.914 11:1.73 12:1.7291 
10 1:3.725 2:-0.9925 3:0.4196 4:1.271 5:0.143 6:-1.4991 7:11.0045 8:14.6975 9:-0.4243 10:-1.3059 11:-0.9995 12:-1.4636 
10 1:-0.8507 2:-1.6565 3:8.9663 4:-1.0349 5:-1.346 6:10.6225 7:-0.2746 8:-0.6852 9:-0.6124 10:-0.4684 11:-0.7379 12:-0.2914 
10 1:3.725 2:6.6408 3:5.9632 4:7.5032 5:10.2247 6:4.8045 7:-1.5522 8:7.1587 9:3.8307 10:4.9152 11:7.0162 12:8.749 
10 1:0.5206 2:-0.2631 3:-0.5873 4:1.65 5:1.0389 6:6.5655 7:-2.5752 8:0.741 9:0.1989 10:-0.1627 11:0 12:0.2832 
10 1:2.7937 2:3.5911 3:3.9821 4:4.3257 5:12.3329 6:10.6225 7:5.7816 8:7.1785 9:5.6832 10:8.0178 11:1.8091 12:12.5083 
10 1:5.4303 2:24.8973 3:4.7411 4:2.0283 5:3.9165 6:0.5957 7:1.0597 8:1.792 9:3.7918 10:4.2685 11:3.4205 12:4.8789 
10 1:3.725 2:6.6408 3:5.9632 4:7.5032 5:10.2247 6:4.8045 7:-1.5522 8:7.1587 9:3.8307 10:4.9152 11:7.0162 12:8.749 
10 1:0.5206 2:-0.2631 3:-0.5873 4:1.65 5:1.0389 6:6.5655 7:-2.5752 8:0.741 9:0.1989 10:-0.1627 11:0 12:0.2832 
10 1:5.4303 2:1.2414 3:1.2563 4:1.2131 5:-0.5421 6:-3.5305 7:1.0597 8:1.4491 9:1.7437 10:4.2685 11:2.3286 12:1.4908 
10 1:2.7937 2:3.5911 3:3.9821 4:4.3257 5:12.3329 6:10.6225 7:5.7816 8:7.1785 9:5.6832 10:8.0178 11:1.8091 12:12.5083 
10 1:5.4303 2:24.8973 3:4.7411 4:2.0283 5:3.9165 6:0.5957 7:1.0597 8:1.792 9:3.7918 10:4.2685 11:3.4205 12:4.8789 
9.797525848487746 1:18.8729 2:7.3492 3:3.9821 4:5.1208 5:30.1771 6:10.6225 7:11.0045 8:6.7516 9:7.2846 10:3.7185 11:0.4743 12:8.8997 
10 1:2.7937 2:0.7109 3:0.3939 4:-0.1936 5:2.1268 6:0.0971 7:-4.9663 8:0.1142 9:0.2176 10:2.5187 11:-0.972 12:-0.2657 
10 1:-0.3644 2:-0.4743 3:-0.2657 4:-1.1068 5:-0.8742 6:-3.5305 7:1.0597 8:-0.7379 9:0.9487 10:-0.6608 11:-0.2176 12:-0.6508 
10 1:1.4491 2:0.866 3:-1.646 4:-0.6599 5:0 6:-1.7002 7:-0.2746 8:0.143 9:-0.2252 10:2.0023 11:14.6296 12:2.846 
10 1:0.4743 2:-0.1936 3:1.4491 4:0 5:2.846 6:-1.4991 7:8.1803 8:-1.1484 9:-0.4467 10:1.4908 11:1.8974 12:0 
10 1:0.3162 2:1.4491 3:0 4:0 5:-0.073 6:-1.7002 7:-0.2746 8:-1.4322 9:-0.1936 10:2.846 11:0 12:1.0279 
10 1:-1.1116 2:-0.3985 3:1.9261 4:-0.1627 5:-0.8503 6:4.8045 7:-3.7407 8:-0.7379 9:-1.587 10:1.4491 11:0.4743 12:2.846 
6.417575844641512 1:-0.414 2:0.0777 3:0.7746 4:4.2691 5:2.2883 6:0.5957 7:-0.2746 8:-0.6995 9:1.1062 10:1.4491 11:1.8974 12:22.311 
10 1:14.4411 2:0 3:0 4:4.2691 5:0.8581 6:1.482 7:-4.2061 8:-1.271 9:-2.0447 10:-0.1142 11:-0.1006 12:-1.587 
1.1068669283241 1:8.9079 2:8.9079 3:1.4661 4:6.9387 5:23.25 6:6.5655 7:1.8589 8:9.9704 9:0.8706 10:7.7533 11:1.358 12:2.992 
0.6631067277199438 1:6.0622 2:5.5778 3:3.007 4:12.2972 5:0 6:10.6225 7:1.8589 8:9.9704 9:3.3359 10:10.0817 11:12 12:10.0817 
10 1:0.6995 2:-0.414 3:0.7379 4:0.5411 5:-0.8018 6:0.5957 7:-1.7095 8:-0.7379 9:-0.9995 10:-0.0909 11:-0.4743 12:-0.2914 
10 1:2.7937 2:3.5911 3:3.9821 4:4.3257 5:12.3329 6:10.6225 7:5.7816 8:7.1785 9:5.6832 10:8.0178 11:1.8091 12:12.5083 
10 1:5.4303 2:24.8973 3:4.7411 4:2.0283 5:3.9165 6:0.5957 7:1.0597 8:1.792 9:3.7918 10:4.2685 11:3.4205 12:4.8789 
1.118887975785081 1:18.8729 2:7.3492 3:3.9821 4:5.1208 5:30.1771 6:10.6225 7:11.0045 8:6.7516 9:7.2846 10:4.2756 11:12.8899 12:8.8997 
10 1:3.725 2:6.6408 3:5.9632 4:7.5032 5:10.2247 6:4.8045 7:-1.5522 8:7.1587 9:3.8307 10:4.9152 11:7.0162 12:8.749 
10 1:5.4303 2:1.2414 3:1.2563 4:1.2131 5:-0.5421 6:-3.5305 7:1.0597 8:1.4491 9:1.7437 10:4.2685 11:2.3286 12:1.4908 
10 1:3.725 2:6.6408 3:5.9632 4:7.5032 5:10.2247 6:4.8045 7:-1.5522 8:7.1587 9:3.8307 10:4.9152 11:7.0162 12:8.749 
10 1:18.8729 2:7.3492 3:3.9821 4:5.1208 5:30.1771 6:10.6225 7:11.0045 8:6.7516 9:7.2846 10:4.2756 11:12.8899 12:8.8997 
10 1:2.7937 2:3.5911 3:3.9821 4:4.3257 5:12.3329 6:10.6225 7:5.7816 8:7.1785 9:5.6832 10:8.0178 11:1.8091 12:12.5083 
10 1:5.4303 2:24.8973 3:4.7411 4:2.0283 5:3.9165 6:0.5957 7:1.0597 8:1.792 9:3.7918 10:4.2685 11:3.4205 12:4.8789 
10 1:3.725 2:-0.9925 3:0.4196 4:1.271 5:0.143 6:-1.4991 7:11.0045 8:14.6975 9:-0.4243 10:-1.3059 11:-0.9995 12:-1.4636 
10 1:-0.8507 2:-1.6565 3:8.9663 4:-1.0349 5:-1.346 6:10.6225 7:-0.2746 8:-0.6852 9:-0.6124 10:-0.4684 11:-0.7379 12:-0.2914 
10 1:3.725 2:6.6408 3:5.9632 4:7.5032 5:10.2247 6:4.8045 7:-1.5522 8:7.1587 9:3.8307 10:4.9152 11:7.0162 12:8.749 
10 1:0.5206 2:-0.2631 3:-0.5873 4:1.65 5:1.0389 6:6.5655 7:-2.5752 8:0.741 9:0.1989 10:-0.1627 11:0 12:0.2832 
10 1:2.7937 2:3.5911 3:3.9821 4:4.3257 5:12.3329 6:10.6225 7:5.7816 8:7.1785 9:5.6832 10:8.0178 11:1.8091 12:12.5083 
10 1:5.4303 2:24.8973 3:4.7411 4:2.0283 5:3.9165 6:0.5957 7:1.0597 8:1.792 9:3.7918 10:4.2685 11:3.4205 12:4.8789 
10 1:3.725 2:6.6408 3:5.9632 4:7.5032 5:10.2247 6:4.8045 7:-1.5522 8:7.1587 9:3.8307 10:4.9152 11:7.0162 12:8.749 
1.494082344399041 1:13.239 2:20.0446 3:26.0361 4:16.9119 5:20.2879 6:0.5957 7:5.7816 8:27.2408 9:22.7274 10:18.6736 11:11.347 12:24.1914 
10 1:5.4303 2:1.2414 3:1.2563 4:1.2131 5:-0.5421 6:-3.5305 7:1.0597 8:1.4491 9:1.7437 10:4.2685 11:2.3286 12:1.4908 
7.962496703798024 1:4.8893 2:1.9696 3:10.1135 4:6.1664 5:6.8133 6:1.482 7:8.1803 8:21.4996 9:20.2849 10:22.9039 11:23.261 12:20.1934 
10 1:0.5721 2:7.3788 3:1.2728 4:0.4684 5:2.7111 6:-1.7002 7:-1.7095 8:1.5811 9:0.3278 10:1.914 11:1.73 12:1.7291 
10 1:3.725 2:6.6408 3:5.9632 4:7.5032 5:10.2247 6:4.8045 7:-1.5522 8:7.1587 9:3.8307 10:4.9152 11:7.0162 12:8.749 
1.291828206401333 1:-1.1068 2:-0.972 3:3.007 4:12.2972 5:0 6:10.6225 7:1.8589 8:9.9704 9:3.3359 10:10.0817 11:12 12:10.0817 
10 1:13.239 2:20.0446 3:26.0361 4:16.9119 5:20.2879 6:0.5957 7:5.7816 8:27.2408 9:22.7274 10:18.6736 11:11.347 12:24.1914 
10 1:18.8729 2:7.3788 3:1.2728 4:0.4684 5:2.7111 6:-1.7002 7:-1.7095 8:1.5811 9:0.3278 10:1.914 11:1.73 12:1.7291 
10 1:13.239 2:20.0446 3:26.0361 4:16.9119 5:20.2879 6:0.5957 7:5.7816 8:27.2408 9:22.7274 10:18.6736 11:11.347 12:24.1914 
0.8665135174421398 1:18.8729 2:7.3492 3:3.9821 4:5.1208 5:30.1771 6:10.6225 7:-1.5522 8:1.3631 9:1.3672 10:8.0178 11:0.3408 12:1.7541 
9.523211063865073 1:14.4411 2:9.2486 3:10.1135 4:6.1664 5:6.8133 6:1.482 7:8.1803 8:21.4996 9:20.2849 10:22.9039 11:23.261 12:20.1934 
10 1:18.8729 2:7.3788 3:1.2728 4:0.4684 5:2.7111 6:-1.7002 7:-1.7095 8:1.5811 9:0.3278 10:1.914 11:1.73 12:1.7291 
10 1:13.239 2:20.0446 3:26.0361 4:16.9119 5:20.2879 6:0.5957 7:5.7816 8:27.2408 9:22.7274 10:18.6736 11:11.347 12:24.1914 
10 1:2.7937 2:3.5911 3:3.9821 4:4.3257 5:12.3329 6:10.6225 7:5.7816 8:7.1785 9:5.6832 10:8.0178 11:1.8091 12:12.5083 
10 1:5.4303 2:24.8973 3:4.7411 4:2.0283 5:3.9165 6:0.5957 7:1.0597 8:1.792 9:3.7918 10:4.2685 11:3.4205 12:4.8789 
10 1:18.8729 2:7.3492 3:3.9821 4:5.1208 5:30.1771 6:10.6225 7:11.0045 8:6.7516 9:7.2846 10:4.2756 11:12.8899 12:8.8997 
8.710399841675914 1:14.4411 2:9.2486 3:10.1135 4:6.1664 5:6.8133 6:1.482 7:8.1803 8:21.4996 9:20.2849 10:22.9039 11:23.261 12:20.1934 
10 1:3.725 2:-0.9925 3:0.4196 4:1.271 5:0.143 6:-1.4991 7:11.0045 8:14.6975 9:-0.4243 10:-1.3059 11:-0.9995 12:-1.4636 
10 1:-0.8507 2:-1.6565 3:8.9663 4:-1.0349 5:-1.346 6:10.6225 7:-0.2746 8:-0.6852 9:-0.6124 10:-0.4684 11:-0.7379 12:-0.2914 
10 1:3.725 2:6.6408 3:5.9632 4:7.5032 5:10.2247 6:4.8045 7:-1.5522 8:7.1587 9:3.8307 10:4.9152 11:7.0162 12:8.749 
10 1:0.5206 2:-0.2631 3:-0.5873 4:1.65 5:1.0389 6:6.5655 7:-2.5752 8:0.741 9:0.1989 10:-0.1627 11:0 12:0.2832 
10 1:6.0083 2:3.5911 3:-1.3072 4:0.1458 5:3.4325 6:4.8045 7:-2.2058 8:2.1213 9:2.2883 10:1.6602 11:1.057 12:1.3059 
4.514350348444664 1:2.2883 2:-0.5477 3:2.1118 4:3.0984 5:-0.8132 6:0.0971 7:-5.921 8:0 9:1.0371 10:13.1235 11:1.2563 12:1.2563 
10 1:13.239 2:20.0446 3:26.0361 4:16.9119 5:20.2879 6:0.5957 7:5.7816 8:27.2408 9:22.7274 10:18.6736 11:11.347 12:24.1914 
9.990178695021577 1:13.239 2:20.0446 3:26.0361 4:16.9119 5:20.2879 6:0.5957 7:5.7816 8:27.2408 9:22.7274 10:18.6736 11:11.347 12:24.1914 
1.503668982985749 1:15.3628 2:24.8973 3:19.448 4:25.2564 5:30.1771 6:10.6225 7:11.0045 8:14.6975 9:25.4558 10:19.0919 11:18.4674 12:12.5083 
4.490748814235786 1:0.9487 2:0.5721 3:0 4:1.0371 5:-1.4542 6:-2.5959 7:1.8589 8:9.9704 9:5.6832 10:1.1619 11:0.7071 12:0 
1.158442915281539 1:32.5021 2:50.2802 3:12.9904 4:24.2592 5:5.7755 6:0.0971 7:-0.2746 8:11.8154 9:11.8154 10:13.1235 11:9.7571 12:11.0709 
1.484710626046796 1:16.1276 2:9.9555 3:22.1511 4:14.3715 5:5.5795 6:2.4702 7:5.7816 8:20.1395 9:12.3329 10:34.4688 11:22.1511 12:14.8492 
1.505027964260285 1:19.9223 2:7.3788 3:22.4633 4:19.9223 5:4.1658 6:-1.5885 7:1.0597 8:25.6144 9:0 10:7.7533 11:6.1348 12:22.1511 
1.394637340402057 1:25.6144 2:15.8531 3:14.8492 4:3.3306 5:3.0978 6:-4.4254 7:3.8226 8:12.3329 9:7.5895 10:11.7527 11:5.458 12:17.0763 
10 1:-0.9299 2:0.7746 3:0.4445 4:0.8581 5:-0.4936 6:-1.7002 7:11.0045 8:3.9626 9:1.9261 10:-0.5582 11:-0.4743 12:-0.3162 
5.036889268583793 1:1.3059 2:0.6037 3:4.9542 4:2.4649 5:1.5665 6:-1.7002 7:11.0045 8:3.9626 9:1.9261 10:5.8246 11:11.8001 12:2.288 
-0.09762247276648349 1:-0.3162 2:0 3:-0.4629 4:1.271 5:-1.1376 6:-2.3043 7:8.1803 8:-2.6833 9:-0.4743 10:34.4688 11:-1.2872 12:4.9497 
-3.419830331549962 1:1.2247 2:-1.7428 3:0 4:2.846 5:6.6408 6:-5.3847 7:8.1803 8:-2.6833 9:-1.7291 10:-0.8503 11:-1.4049 12:-1.2247 
-4.579468224141425 1:0.7071 2:-1.6565 3:8.9663 4:2.0283 5:0 6:-1.7002 7:-5.921 8:-1.5855 9:1.9261 10:-0.0835 11:1.7321 12:-0.2657 
-0.01939540666450737 1:-1.7391 2:1.2414 3:-0.3693 4:2.2819 5:0.7746 6:-1.4991 7:8.1803 8:21.4996 9:-0.5721 10:11.7527 11:-0.8503 12:-1.531 
-0.1604066468797912 1:-1.818 2:-1.9023 3:3.9821 4:-1.4356 5:-0.5421 6:-3.5305 7:8.1803 8:-2.6833 9:-2.327 10:18.6736 11:11.347 12:24.1914 
-1.475427109205808 1:-0.6568 2:-1.9023 3:-1.3072 4:-1.0371 5:30.1771 6:10.6225 7:11.0045 8:-1.6321 9:-0.1936 10:-3.5226 11:2.3286 12:0.1142 
-0.3676539448856752 1:-0.6568 2:0.6211 3:-1.0142 4:-1.5791 5:0.7746 6:6.5655 7:5.7816 8:27.2408 9:22.7274 10:-2.4306 11:-1.9588 12:1.4908 
-0.6708691775993211 1:13.239 2:-0.3162 3:-1.6218 4:4.3257 5:-0.4743 6:4.8045 7:8.1803 8:-2.6833 9:1.9261 10:0.7047 11:-1.0603 12:-1.531 
-1.915695986273816 1:-0.7746 2:-0.7746 3:-0.7746 4:-0.8503 5:-1.9588 6:-3.5305 7:1.0597 8:-1.3582 9:-1.7897 10:-0.1006 11:11.8001 12:1.5791 
-2.380727955293825 1:0.7071 2:0.1355 3:-1.6321 4:-1.2468 5:-1.2792 6:-1.7002 7:-4.9663 8:-1.9836 9:0.2914 10:0.7071 11:1.4491 12:0.1355 
-1.658848125452078 1:4.4367 2:3.2796 3:-0.2535 4:6.1664 5:20.831 6:2.4702 7:8.1803 8:-1.0351 9:0.5593 10:2.4673 11:14.6296 12:-0.9487 
-4.495786829327638 1:-0.9167 2:0.8706 3:-0.9487 4:-0.1936 5:-1.6602 6:1.482 7:1.0597 8:-1.0607 9:-2.1213 10:0 11:-2.5927 12:-2.5451 
-1.194053483183505 1:13.239 2:20.0446 3:-0.3162 4:-1.7779 5:-0.8503 6:4.8045 7:1.0597 8:3.0207 9:1.9261 10:-1.8067 11:-0.8549 12:-1.531 
-0.5645094254348075 1:4.4367 2:3.2796 3:1.0462 4:-1.4356 5:7.8667 6:4.8045 7:8.1803 8:21.4996 9:1.3672 10:-0.5145 11:14.6296 12:-0.9487 
-8.927053538330762 1:4.4367 2:3.2796 3:-0.2535 4:6.1664 5:20.831 6:2.4702 7:8.1803 8:-0.7956 9:-1.2272 10:2.4673 11:14.6296 12:-0.9487 
-0.004128388911349212 1:-3.7947 2:-6.5841 3:-2.92 4:-4.0944 5:-4.0029 6:-1.7002 7:-1.7095 8:-6.8705 9:-2.7111 10:-3.4927 11:-4.7615 12:-4.0931 
-0.002089235213016375 1:-3.7947 2:-6.5841 3:-2.92 4:-4.0944 5:-4.0029 6:-1.7002 7:-1.7095 8:-6.8705 9:-2.7111 10:-3.4927 11:-4.7615 12:-4.0931 
-10 1:20.871 2:33.9523 3:8.9663 4:18.5476 5:23.25 6:6.5655 7:8.1803 8:42 9:33.6783 10:29.263 11:14.1681 12:22.311 
-0.5247368473733103 1:-1.119 2:-1.6602 3:0.9487 4:11.494 5:-1.9378 6:-2.5959 7:-2.5752 8:2.3984 9:0.2657 10:19.0919 11:18.4674 12:-0.2587 
-0.5549988995296162 1:-1.119 2:-1.6602 3:0.9487 4:11.494 5:-0.9487 6:-5.3847 7:-2.5752 8:2.3984 9:0.2657 10:-0.1936 11:-0.8549 12:-0.2587 
-1.370254065693398 1:-0.3162 2:-1.3348 3:1.9261 4:-1.0142 5:-2.1551 6:2.4702 7:5.7816 8:-0.8581 9:-2.1118 10:-0.2832 11:-0.8581 12:0.8581 
-0.1949654720608953 1:0.7071 2:-1.1619 3:1.0462 4:-1.4356 5:1.3703 6:-2.3043 7:8.1803 8:21.4996 9:46.9598 10:4.6476 11:1.1934 12:8.7061 
-0.1127171282001039 1:1.0142 2:33.9523 3:1.9064 4:6.9387 5:0.4743 6:2.4702 7:-2.575 8:-2.575 9:-2.0545 10:-1.921 11:-2.5927 12:-2.5451 
-0.2372069391459972 1:0.7071 2:-1.1619 3:1.0462 4:-1.4356 5:-0.8706 6:-4.2156 7:8.1803 8:21.4996 9:46.9598 10:4.6476 11:1.1934 12:8.7061 
-1.478381068664643 1:-0.8503 2:-0.8503 3:-2.8293 4:-0.7746 5:1.1619 6:-1.7002 7:-1.7095 8:-6.8705 9:-2.5981 10:-1.5325 11:-4.7615 12:-4.0931 
-10 1:-0.7218 2:-0.0909 3:1.2563 4:0.2535 5:0.4743 6:2.4702 7:-2.5752 8:0.741 9:-0.6396 10:-1.2649 11:1.8974 12:1.0279 
-0.213690097619521 1:-2.0343 2:-0.6211 3:-1.5855 4:-2.6879 5:-1.0371 6:10.6225 7:-1.5522 8:7.1587 9:-0.3408 10:1.1619 11:23.261 12:-0.2535 
-1.377743003125354 1:5.4303 2:24.8973 3:4.7411 4:2.0283 5:3.9165 6:0.5957 7:1.0597 8:1.792 9:3.7918 10:4.2685 11:3.4205 12:4.8789 
-0.1967664314279204 1:3.725 2:-0.9925 3:0.4196 4:1.271 5:0.143 6:-1.4991 7:11.0045 8:14.6975 9:-0.4243 10:-1.3059 11:-0.9995 12:-1.4636 
-0.1326607863074123 1:-0.8507 2:-1.6565 3:8.9663 4:-1.0349 5:-1.346 6:10.6225 7:-0.2746 8:-0.6852 9:-0.6124 10:-0.4684 11:-0.7379 12:-0.2914 
-1.982062838652795 1:0.5206 2:-0.2631 3:-0.5873 4:1.65 5:1.0389 6:6.5655 7:-2.5752 8:0.741 9:0.1989 10:-0.1627 11:0 12:0.2832 
-0.3950589166854767 1:6.0622 2:-1.6602 3:-1.2247 4:0.8581 5:0.1355 6:2.4702 7:-4.2061 8:-0.4568 9:7.5895 10:11.7527 11:-0.8503 12:-0.6508 
-0.1786966438192491 1:-1.5325 2:-2.6913 3:-0.6608 4:-0.9188 5:30.1771 6:10.6225 7:-3.7407 8:-1.4884 9:-1.8184 10:-0.8296 11:-2.0447 12:14.8492 
-0.07317766330985531 1:-0.414 2:0.4743 3:1.6602 4:-1.0349 5:-0.143 6:-2.1249 7:-0.7878 8:0.5721 9:-1.4661 10:7.7533 11:0.4445 12:0 
-10 1:6.0083 2:3.5911 3:-1.3072 4:0.1458 5:3.4325 6:4.8045 7:-2.2058 8:2.1213 9:2.2883 10:1.6602 11:1.057 12:1.3059 
-0.002041683839278965 1:1.0142 2:-1.2649 3:-1.0386 4:24.2592 5:6.8133 6:1.482 7:5.7816 8:7.1785 9:0 10:-0.2587 11:-0.972 12:-0.9115 
-8.001447883091036 1:-0.9487 2:-1.3024 3:-1.0142 4:-0.4743 5:-0.4445 6:-2.1249 7:-4.9663 8:-0.3162 9:-0.3162 10:5.0349 11:-1.1062 12:-0.5721 
-3.9869178979393 1:-1.0371 2:-0.7071 3:0.4196 4:0.3162 5:-0.9939 6:-3.5305 7:-1.5522 8:1.4908 9:-0.4243 10:0.7746 11:-1.0279 12:-0.8706 
-2.902390486956882 1:13.239 2:3.5355 3:1.1068 4:0.6508 5:-1.5855 6:-3.5305 7:-4.2061 8:-1.271 9:-1.3024 10:-0.6211 11:-1.5855 12:-0.5582 
-10 1:2.2883 2:3.5193 3:1.2728 4:0.5411 5:2.789 6:-2.5959 7:-5.921 8:0.5112 9:3.4325 10:1.9588 11:-1.0603 12:0.2587 
-0.4110465172925903 1:-2.4673 2:3.5911 3:-1.3072 4:0.1458 5:3.4325 6:4.8045 7:-2.2058 8:2.1213 9:2.2883 10:1.6602 11:1.057 12:1.3059 
-2.881565534122667 1:1.2197 2:6.9714 3:-0.3162 4:-1.765 5:6.6408 6:1.482 7:-1.2872 8:-0.3162 9:-0.3693 10:-0.7115 11:-1.2792 12:2.846 
-2.517047275389906 1:0.3162 2:-0.9487 3:-1.6953 4:-1.3631 5:-0.9606 6:0.5957 7:1.0597 8:3.0207 9:4.5695 10:-0.6211 11:-0.8054 12:-1.5398 
-2.058893331776426 1:15.3628 2:-2.0397 3:-2.8293 4:0.4684 5:-1.1078 6:1.482 7:-4.9663 8:-1.1619 9:-1.6183 10:-0.9995 11:-0.9995 12:-2.846 
-0.001724113628411702 1:-1.5791 2:-0.8549 3:-1.5213 4:-1.1068 5:-1.2728 6:-2.1249 7:-1.5095 8:-1.6048 9:-1.4661 10:7.7533 11:0.2397 12:22.311 
-1.490135452863443 1:13.239 2:20.0446 3:26.0361 4:5.1208 5:-1.7291 6:6.5655 7:1.0597 8:0.9791 9:0.6211 10:-0.1142 11:-0.1006 12:-1.0371 
-0.05933701513578783 1:-2.0649 2:-0.7357 3:10.1135 4:-2.3941 5:-2.1118 6:-2.3043 7:-4.9663 8:-0.4743 9:-0.1355 10:-0.1355 11:-1.8974 12:12.5083 
-1.787303482965504 1:-1.4491 2:4.4272 3:-0.2657 4:-1.2872 5:-1.0603 6:-1.7002 7:1.0597 8:-1.3582 9:-0.5145 10:-0.9487 11:11.347 12:-1.792 
-0.7410205118369303 1:-1.0371 2:-0.3162 3:-1.0371 4:1.4491 5:0.9487 6:10.6225 7:8.1803 8:-1.8067 9:-1.3699 10:4.9152 11:1.2247 12:-0.4629 
-0.2644003155739851 1:-0.905 2:-1.3024 3:8.9663 4:-0.9299 5:-1.0371 6:10.6225 7:8.1803 8:-1.0351 9:-1.8184 10:-2.0708 11:9.7571 12:-1.0162 
-0.1580710723679112 1:3.5355 2:-1.1068 3:14.8492 4:-1.4764 5:-1.0371 6:10.6225 7:-1.5095 8:0.2832 9:0.2176 10:-0.9487 11:-0.7379 12:0 
-3.298142616902983 1:1.4491 2:-1.4908 3:-2.5487 4:-0.8706 5:0.8706 6:1.482 7:8.1803 8:-1.8067 9:-1.2728 10:-0.6211 11:-1.2649 12:-1.0162 
-10 1:13.239 2:20.0446 3:26.0361 4:16.9119 5:20.2879 6:0.5957 7:5.7816 8:27.2408 9:22.7274 10:18.6736 11:11.347 12:24.1914 
-0.334674766670704 1:5.4303 2:1.2414 3:1.2563 4:1.2131 5:-0.5421 6:-3.5305 7:1.0597 8:1.4491 9:1.7437 10:4.2685 11:2.3286 12:1.4908 
-0.01100062404254037 1:2.7937 2:3.5911 3:3.9821 4:4.3257 5:12.3329 6:10.6225 7:5.7816 8:7.1785 9:5.6832 10:-0.3644 11:-0.8503 12:12.5083 
-10 1:5.4303 2:24.8973 3:4.7411 4:2.0283 5:-0.2535 6:-1.5885 7:1.0597 8:1.792 9:3.7918 10:4.2685 11:3.4205 12:4.8789 
-10 1:-0.7218 2:-1.3887 3:3.9821 4:5.1208 5:30.1771 6:10.6225 7:11.0045 8:6.7516 9:7.2846 10:4.8893 11:1.2414 12:8.8997 
-10 1:4.8893 2:1.9696 3:10.1135 4:6.1664 5:6.8133 6:1.482 7:8.1803 8:21.4996 9:20.2849 10:22.9039 11:23.261 12:-0.1355 
-0.01985894526254275 1:3.725 2:-0.9925 3:0.4196 4:1.271 5:0.143 6:-1.4991 7:11.0045 8:14.6975 9:-0.4243 10:-1.3059 11:-0.9995 12:-1.4636 
-0.005886372605083978 1:-0.8507 2:-1.6565 3:8.9663 4:-1.0349 5:-1.346 6:10.6225 7:-0.2746 8:-0.6852 9:-0.6124 10:-0.4684 11:-0.7379 12:-0.2914 
-1.394681482975814 1:3.725 2:6.6408 3:5.9632 4:7.5032 5:10.2247 6:4.8045 7:11.0045 8:-1.0371 9:3.8307 10:4.9152 11:7.0162 12:8.749 
-4.818872233318354 1:0.5206 2:-0.2631 3:-0.5873 4:-1.4908 5:-1.0142 6:-1.5885 7:-2.5752 8:0.741 9:0.1989 10:-0.1627 11:0 12:0.2832 
-1.271968769190955 1:-1.1078 2:-0.3721 3:-1.9592 4:-1.4356 5:5.7755 6:0.0971 7:8.1803 8:-0.9939 9:-0.2587 10:-1.0371 11:-1.4491 12:0.1142 
-9.87104694139587 1:-1.2197 2:-0.3162 3:-0.7115 4:-1.0279 5:0.6211 6:-2.3043 7:1.8589 8:5.5895 9:1.0607 10:-2.3146 11:1.2563 12:-1.3703 
-10 1:6.0622 2:-1.6602 3:-1.6218 4:0.6037 5:0.1355 6:2.4702 7:-4.2061 8:0.75 9:-1.1062 10:-0.4445 11:-0.8503 12:-0.6508 
-10 1:5.4303 2:24.8973 3:4.7411 4:2.0283 5:3.9165 6:0.5957 7:1.0597 8:1.792 9:3.7918 10:4.2685 11:3.4205 12:4.8789 
-10 1:-0.7218 2:-0.3162 3:1.2728 4:0.4684 5:2.7111 6:-1.7002 7:-1.7095 8:1.5811 9:0.3278 10:1.914 11:1.73 12:1.7291 
-0.2183317023878827 1:0.5206 2:-0.2631 3:-0.5873 4:1.65 5:1.0389 6:6.5655 7:-2.5752 8:0.741 9:0.1989 10:-0.1627 11:0 12:0.2832 
-10 1:13.239 2:20.0446 3:26.0361 4:16.9119 5:20.2879 6:0.5957 7:5.7816 8:27.2408 9:22.7274 10:18.6736 11:11.347 12:24.1914 
-1.075702784183741 1:2.7937 2:3.5911 3:3.9821 4:4.3257 5:12.3329 6:10.6225 7:5.7816 8:7.1785 9:5.6832 10:-0.3644 11:-0.8503 12:12.5083 
-0.05106232577772465 1:5.4303 2:24.8973 3:4.7411 4:2.0283 5:-0.2535 6:-1.5885 7:1.0597 8:1.792 9:3.7918 10:4.2685 11:-2.1213 12:-1.3871 
-0.1131657177466489 1:18.8729 2:7.3788 3:1.2728 4:0.4684 5:2.7111 6:-1.7002 7:-1.7095 8:1.5811 9:0.3278 10:1.914 11:1.73 12:1.7291 
-0.05454581348179779 1:3.725 2:6.6408 3:5.9632 4:7.5032 5:10.2247 6:4.8045 7:-1.5522 8:7.1587 9:3.8307 10:4.9152 11:7.0162 12:8.749 
-10 1:13.239 2:3.5355 3:1.1068 4:0.6508 5:1.8974 6:-1.5885 7:-4.2061 8:-1.271 9:-1.2247 10:-1.5435 11:1.1934 12:-1.4491 
-10 1:0.7071 2:-1.0142 3:-0.2832 4:-1.9836 5:2.789 6:-2.5959 7:-1.7095 8:-0.6211 9:-1.6036 10:-0.4743 11:-0.8296 12:1.8974 
-3.01089617197577 1:6.0622 2:-1.1068 3:-1.4908 4:-2.17 5:-0.7746 6:-4.4254 7:1.8589 8:9.9704 9:-0.5582 10:-0.4743 11:-2.5927 12:-2.5451 
-0.2958343782135137 1:-1.5 2:-2.0397 3:-0.6211 4:-1.0142 5:-1.5213 6:-4.4254 7:-1.5522 8:7.1587 9:-1.2247 10:-0.5883 11:-1.1062 12:2.0447 
-0.2582120019318102 1:14.4411 2:-1.7428 3:-1.5855 4:-2.6879 5:-1.1116 6:2.4702 7:8.1803 8:-1.0351 9:-1.8184 10:-1.0142 11:-0.4743 12:0.1142 
-0.3255528620691417 1:-2.2443 2:-0.9167 3:-0.4743 4:-0.9299 5:-4.0029 6:-1.7002 7:1.0597 8:1.792 9:-0.2554 10:7.7533 11:-0.2176 12:24.1914 
-1.532216454551401 1:-1.2728 2:-0.3162 3:-1.5989 4:-1.2563 5:-0.9487 6:-5.3847 7:-2.5752 8:-0.2535 9:-1.0142 10:-1.7428 11:18.4674 12:-0.2587 
-2.139603221259844 1:-2.2414 2:-1.6602 3:-1.6218 4:5.1208 5:-1.0954 6:2.4702 7:-4.2061 8:0.75 9:4.5695 10:11.7527 11:-0.8503 12:-1.1078 
-0.4386506862264292 1:-2.0649 2:-1.119 3:-0.6211 4:-0.5721 5:0.8581 6:1.482 7:8.1803 8:-1.8067 9:-2.0447 10:18.6736 11:11.347 12:24.1914 
-2.5436463448386 1:3.5355 2:-0.9167 3:-0.5145 4:5.1208 5:-0.2535 6:-1.5885 7:-4.2061 8:-2.1213 9:-1.4491 10:-1.5732 11:-0.4568 12:-0.6608 
-0.4482535042111152 1:4.8893 2:-0.75 3:-0.9487 4:24.2592 5:20.831 6:2.4702 7:11.0045 8:-1.3703 9:-1.4643 10:11.7527 11:-0.8503 12:-1.5398 
-1.855270409973703 1:14.4411 2:-1.1068 3:-0.8262 4:5.1208 5:0 6:-1.7002 7:-1.7095 8:-2.0397 9:-0.1936 10:-0.6613 11:12.8899 12:8.8997 
-1.411168964951113 1:6.0622 2:-1.7428 3:-0.9167 4:-0.5721 5:-1.5046 6:-1.7002 7:11.0045 8:6.7516 9:0.5593 10:-3.5226 11:-0.3644 12:-1.2247 
-7.690273111943077 1:13.239 2:3.5355 3:6.9714 4:-0.8503 5:0.7746 6:-1.4991 7:-1.7095 8:-0.8027 9:-0.5582 10:0.3162 11:-1.2247 12:-1.3059 
-0.9257110178250945 1:25.6144 2:0 3:-0.7071 4:3.0984 5:-0.8132 6:0.0971 7:-1.5095 8:0.2832 9:0.2176 10:-0.4743 11:-0.7746 12:-0.1355 
-5.052730063926404 1:-0.7218 2:-0.0909 3:-0.3162 4:-0.7746 5:0.2535 6:-3.5305 7:8.1803 8:-0.7956 9:-0.3162 10:-0.2832 11:-2.4842 12:-1.3703 
-2.055174164515545 1:19.9223 2:-0.3721 3:-1.0371 4:0 5:-1.4055 6:0.0971 7:-0.2746 8:0.143 9:0.1989 10:4.6476 11:-0.8296 12:0.1142 
-5.68005143756088 1:-1.7391 2:-0.75 3:-0.3162 4:-0.8706 5:3.0832 6:-1.5885 7:5.7816 8:7.1785 9:0 10:2.4673 11:1.2247 12:-0.3162 
-10 1:-0.1936 2:1.1619 3:-0.5721 4:2.4649 5:0.2535 6:-2.5959 7:0 8:-0.7746 9:-0.6508 10:-0.5145 11:-1.3887 12:-0.8503 
-0.0218261541255806 1:-1.5435 2:0.7746 3:-1.5791 4:2.0283 5:30.1771 6:10.6225 7:1.0597 8:-0.3721 9:-0.9487 10:-2.7574 11:-2.1048 12:0.1762 
-0.5407233007183561 1:-1.1068 2:-0.972 3:3.9821 4:-1.0142 5:-1.2649 6:-4.4254 7:-5.921 8:-1.9836 9:-1.2247 10:-0.2587 11:-1.4767 12:1.4491 
-0.2087603109329793 1:-4.2013 2:-1.6565 3:-1.4491 4:-0.7746 5:20.2879 6:0.5957 7:-4.2061 8:-2.1213 9:-0.7047 10:-0.2587 11:-0.1627 12:12.5083 
-3.314639033453075 1:3.5355 2:5.5778 3:-0.8581 4:-0.6034 5:-0.9188 6:0.5957 7:-0.2746 8:-0.1914 9:-1.5213 10:-0.9487 11:-0.4743 12:-1.1619 
-7.3430100208756 1:0.3644 2:0.866 3:-0.4743 4:-0.8874 5:0.7746 6:-1.4991 7:-2.8062 8:-1.0279 9:-0.8178 10:-0.1142 11:-1.8974 12:-1.531 
-5.745055990999769 1:0.3644 2:-1.9378 3:1.9064 4:1.2197 5:-0.8132 6:0.0971 7:1.0597 8:1.792 9:3.7918 10:-1.4491 11:-0.8581 12:12.5083 
-0.8399045727584923 1:15.3628 2:24.8973 3:19.448 4:-2.0023 5:-1.9261 6:0.0971 7:-2.5752 8:-0.6211 9:-0.8178 10:-0.5145 11:-1.3887 12:-2.2883 
-0.8811507056732728 1:-2.1213 2:5.0596 3:0.1142 4:19.9223 5:4.1658 6:-1.5885 7:-2.2058 8:2.1213 9:-0.8132 10:13.1235 11:1.1934 12:-1.1376 
-0.4127373383327256 1:-1.1927 2:50.2802 3:-0.8581 4:-0.3162 5:-0.5721 6:2.4702 7:1.0597 8:-1.3582 9:1.5213 10:-0.8581 11:-1.2197 12:1.0279 
-1.194255773605668 1:0.3644 2:-1.9378 3:-2.5487 4:1.3887 5:4.1658 6:-1.5885 7:-2.5752 8:-0.8706 9:-0.8503 10:-1.7428 11:18.4674 12:-0.8018 
-1.851669208821194 1:-1.9852 2:-0.7071 3:-0.7746 4:3.3306 5:-1.9261 6:0.0971 7:11.0045 8:-1.6321 9:-2.8169 10:-1.765 11:-1.7196 12:-2.846 
-0.4878096994301103 1:-1.1068 2:0.5721 3:-1.646 4:-0.6599 5:-1.057 6:-2.3043 7:5.7816 8:7.1785 9:3.3359 10:4.2685 11:-1.6562 12:-1.0142 
-0.2835284633605253 1:-2.2443 2:-1.6984 3:-1.4678 4:1.3703 5:30.1771 6:10.6225 7:5.7816 8:-0.8581 9:-0.8132 10:-1.0607 11:-1.5651 12:2.0447 
-0.04912258974703031 1:-0.3693 2:-0.4629 3:-1.4678 4:-0.7746 5:-0.7379 6:-5.3847 7:-4.2061 8:-0.5937 9:3.3359 10:-1.3586 11:-0.8503 12:-1.8974 
-0.09965610204565387 1:-2.1324 2:0.4445 3:-1.4569 4:0.0558 5:4.7434 6:4.8045 7:11.0045 8:14.6975 9:3.4325 10:0.905 11:-0.5593 12:-2.0023 
-3.379897723079341 1:-0.3162 2:-1.4142 3:-1.0371 4:-1.4908 5:-0.2176 6:0.0971 7:-4.9663 8:-0.8581 9:0.9487 10:4.9152 11:1.2247 12:-1.0664 
-1.681025387395889 1:-0.3644 2:0.2832 3:12.9904 4:-1.9106 5:-1.2649 6:2.4702 7:5.7816 8:7.1785 9:0 10:-1.3582 11:-0.7115 12:1.4908 
-1.71505902070385 1:0.7746 2:-1.271 3:-0.5145 4:5.1208 5:-1.0954 6:2.4702 7:11.0045 8:-1.6321 9:-1.3699 10:4.9152 11:-0.4743 12:-0.8581 
-10 1:13.239 2:20.0446 3:26.0361 4:16.9119 5:20.2879 6:0.5957 7:5.7816 8:27.2408 9:22.7274 10:18.6736 11:11.347 12:24.1914 
-9.620178483586331 1:2.7937 2:3.5911 3:3.9821 4:4.3257 5:12.3329 6:10.6225 7:5.7816 8:7.1785 9:5.6832 10:-0.3644 11:-0.8503 12:12.5083 
-0.063415367466606 1:5.4303 2:24.8973 3:4.7411 4:2.0283 5:-0.2535 6:-1.5885 7:1.0597 8:1.792 9:3.7918 10:4.2685 11:-2.1213 12:-1.3871 
-0.2573533705862192 1:-0.7218 2:-1.3887 3:3.9821 4:5.1208 5:30.1771 6:10.6225 7:1.0597 8:1.792 9:7.2846 10:4.2756 11:12.8899 12:8.8997 
-4.092703350035904 1:2.7937 2:3.5911 3:1.2872 4:-0.8706 5:0.8706 6:1.482 7:-1.5522 8:-1.271 9:-1.7897 10:19.0919 11:-0.9762 12:0.1142 
-0.6328839658959915 1:-2.1213 2:-1.5791 3:-1.3582 4:-1.9836 5:-0.143 6:-2.1249 7:-0.2746 8:11.8154 9:25.4558 10:-0.1936 11:0.6211 12:-1.7265 
-5.479702965444197 1:-0.3162 2:1.9261 3:-0.3162 4:0 5:-2.288 6:0.5957 7:-4.9663 8:-0.7517 9:-0.8503 10:-1.1212 11:-0.8581 12:-0.9487 
-10 1:1.4491 2:-0.7746 3:4.7411 4:-0.5721 5:-0.6211 6:0.5957 7:5.7816 8:-0.3162 9:1.7437 10:-0.9995 11:-0.9487 12:-0.5883 
-1.089666159110923 1:-1.2649 2:-0.7746 3:-0.3162 4:-0.8706 5:-1.9378 6:6.5655 7:-1.7095 8:-0.7379 9:0.5593 10:-1.4908 11:18.4674 12:12.5083 
-10 1:0.3162 2:-0.3162 3:1.9064 4:-1.7265 5:-0.6568 6:-5.3847 7:-2.5752 8:-0.8178 9:0 10:-0.8503 11:2.846 12:0.1142 
-0.7549538120371675 1:-0.6211 2:0 3:0 4:-0.4743 5:0 6:-4.2156 7:-0.2746 8:-0.7071 9:-0.7379 10:-2.1301 11:-1.6774 12:0.1142 
-0.0513479887652109 1:15.3628 2:-1.4491 3:-1.646 4:3.3306 5:3.0978 6:-4.4254 7:11.0045 8:0.3162 9:-1.4491 10:-2.7574 11:-2.1048 12:-1.8356 
-1.09374836408653 1:-0.9091 2:5.5778 3:-1.4569 4:-0.1627 5:-1.4643 6:-4.4254 7:-5.921 8:-2.2883 9:-1.2728 10:-1.3059 11:-1.5651 12:-2.3924 
-1.34996569722384 1:-0.6508 2:-0.3162 3:-0.3162 4:-0.1627 5:-0.4743 6:2.4702 7:8.1803 8:-0.7956 9:0 10:-0.9995 11:-1.2247 12:1.0279 
-1.321725083731674 1:-0.3721 2:-0.5145 3:-1.5152 4:14.3715 5:-1.4055 6:0.0971 7:-4.2061 8:-1.271 9:0 10:0 11:12.8899 12:-1.4943 
-1.024429989108976 1:18.8729 2:-1.3631 3:0.1936 4:-1.2468 5:-0.4196 6:1.482 7:-2.8062 8:-2.3286 9:-1.1062 10:-1.0371 11:9.7571 12:-0.9487 
-8.995780611097942 1:-1.0279 2:-1.9378 3:1.9064 4:6.9387 5:-0.5721 6:-2.5959 7:5.7816 8:3.5193 9:-0.069 10:-0.6608 11:2.7111 12:2.0447 
-3.00562687385704 1:0.4445 2:0.6037 3:-1.4491 4:-0.7746 5:-0.8706 6:1.482 7:5.7816 8:-0.3093 9:-1.3699 10:-2.1573 11:-1.0603 12:-0.6508 
-0.9435832238143992 1:-2.5187 2:-0.8581 3:-2.6913 4:1.9696 5:-0.3693 6:-1.4991 7:-0.2746 8:-1.4322 9:-2.0555 10:-1.539 11:-1.0603 12:24.1914 
-0.5227783999437425 1:-0.6037 2:-1.9261 3:-0.4743 4:-0.6211 5:20.2879 6:0.5957 7:-2.2058 8:-1.3059 9:6.6408 10:-0.7379 11:-0.9487 12:-1.5855 
-1.08904741836874 1:-0.1936 2:4.0591 3:-0.905 4:-0.9139 5:-0.7746 6:0.303 7:5.7816 8:-0.3093 9:5.0349 10:-1.0371 11:9.7571 12:0.1142 
-8.844344244882272 1:-0.6211 2:-1.6602 3:1.4661 4:-0.8027 5:-0.8503 6:0.0971 7:11.0045 8:0.3162 9:-0.3162 10:-0.8503 11:-0.9487 12:-1.0371 
-0.819240748023547 1:-1.2197 2:-1.3348 3:2.3941 4:0.1006 5:-0.4936 6:-1.7002 7:8.1803 8:-1.1484 9:-0.4467 10:-1.0142 11:-2.0447 12:-2.17 
-4.444813504750202 1:-0.9167 2:0.9487 3:1.4491 4:-1.0142 5:-1.2792 6:-1.7002 7:-0.2746 8:-1.4322 9:6.6408 10:-0.7379 11:-1.1423 12:1.2563 
-10 1:-0.8018 2:-0.6211 3:1.9064 4:-1.4764 5:1.4491 6:-4.2156 7:8.1803 8:0.3644 9:0 10:-1.8974 11:0 12:-0.6211 
-0.4338843045879425 1:-0.9762 2:-0.3693 3:-1.0386 4:-0.9299 5:-1.3024 6:-2.1249 7:-4.2061 8:-0.9939 9:-0.414 10:18.6736 11:-1.1619 12:0.1355 
-5.14903003812343 1:0.7071 2:-1.9378 3:-1.0142 4:0.8581 5:-0.3162 6:4.8045 7:-5.921 8:-1.5325 9:0.8581 10:10.0817 11:-0.9487 12:-1.3871 
-1.037399389208762 1:-2.1301 2:1.8974 3:-2.5725 4:-0.7997 5:-1.1078 6:1.482 7:-0.2746 8:-1.5213 9:0.8706 10:19.0919 11:18.4674 12:-0.75 
-0.3554502582171851 1:2.9642 2:-0.8581 3:8.9663 4:24.2592 5:-0.5421 6:-3.5305 7:-1.7095 8:-0.6211 9:-0.7746 10:-0.3162 11:-0.4278 12:-0.4743 
-0.5951145865324458 1:-0.4743 2:-0.9487 3:-0.6608 4:-0.2243 5:0.4743 6:2.4702 7:-1.2872 8:-1.1068 9:-1.671 10:-2.3146 11:9.7571 12:17.0763 
-0.5083358346959896 1:-0.6608 2:-0.0909 3:-0.3803 4:-0.4743 5:0.3644 6:1.482 7:8.1803 8:-1.0279 9:-0.2252 10:2.0023 11:-1.1423 12:-1.2272 
-1.03726297339671 1:16.1276 2:-1.4908 3:-1.0142 4:-1.5791 5:-1.0371 6:-1.5885 7:-1.5522 8:-1.6602 9:-0.6211 10:-1.1619 11:-1.5855 12:8.8997 
-5.69709645593404 1:-2.4673 2:0.7746 3:-0.7379 4:-1.4908 5:-0.7746 6:-4.4254 7:-5.921 8:-1.4908 9:0.3644 10:-0.0835 11:-0.7379 12:-0.7746 
-0.9991010184669954 1:66.0916 2:-1.1706 3:-1.7008 4:-1.7196 5:-1.2649 6:-1.7002 7:-5.921 8:-1.0279 9:-0.5145 10:2.5187 11:-0.4743 12:-0.3162 
-5.177755252307917 1:-0.3644 2:0.7109 3:1.4661 4:-0.7997 5:-1.3111 6:-1.5885 7:-1.7095 8:-0.3162 9:-0.6211 10:-0.1936 11:-0.6211 12:-0.3162 
-6.447412141648503 1:2.9642 2:1.2414 3:-1.7008 4:2.0283 5:-1.057 6:-2.3043 7:-0.2746 8:0.143 9:0.9487 10:-0.9299 11:-1.0603 12:-1.5398 
-0.5453171383205702 1:-0.4445 2:-0.4445 3:-2.6352 4:0.4445 5:0.3162 6:-3.5305 7:-4.2061 8:-1.5 9:-1.6036 10:4.9152 11:1.2247 12:-1.5811 
-0.2071480129413185 1:0.4743 2:0.1762 3:0 4:19.9223 5:1.0279 6:2.4702 7:-1.5095 8:0 9:-2.4223 10:4.9152 11:-1.2197 12:-0.8503 
-10 1:1.4491 2:4.4272 3:-0.8699 4:2.0283 5:-0.1762 6:1.482 7:-2.5752 8:-2.1213 9:-0.4743 10:-0.8503 11:-1.2728 12:-0.866 
-10 1:-0.7071 2:1.1619 3:1.8974 4:0 5:0 6:0.0971 7:-1.7095 8:-0.7379 9:-2.1118 10:-0.2832 11:-0.1006 12:0.1355 
-0.004845582742110595 1:-0.8018 2:0 3:-1.0607 4:-1.1068 5:-0.9487 6:-2.1483 7:1.8589 8:9.9704 9:-1.4643 10:2.0023 11:14.6296 12:-0.2914 
-0.9964059092037144 1:-1.5791 2:0 3:1.2272 4:1.2197 5:6.6408 6:1.482 7:-0.2746 8:11.8154 9:-2.1213 10:-0.6613 11:0.6211 12:1.4491 
-0.9079431277184342 1:-0.9995 2:-0.5145 3:-0.3162 4:5.0349 5:0.4445 6:6.5655 7:-0.2746 8:-0.6852 9:-1.2272 10:2.4673 11:1.2247 12:-1.792 
-0.983830344598433 1:3.5355 2:-1.7265 3:4.9542 4:-0.5937 5:3.9165 6:0.5957 7:-0.2746 8:-1.587 9:-2.1213 10:-1.2728 11:-1.4491 12:-1.3703 
-1.964748706942218 1:3.5355 2:9.2486 3:-1.1057 4:-1.3631 5:-0.8503 6:4.8045 7:-4.9663 8:0.1142 9:-1.2728 10:-1.4201 11:-1.4049 12:-0.414 
-1.643132404660624 1:2.2883 2:-0.8262 3:-1.5213 4:2.846 5:-0.905 6:10.6225 7:8.1803 8:-0.7956 9:-1.2272 10:-1.0607 11:-1.4661 12:1.2247 
-0.3781223301889592 1:-1.2563 2:-0.7071 3:-2.6913 4:-1.4491 5:10.2247 6:4.8045 7:-2.8062 8:1.8974 9:20.2849 10:-0.8178 11:-1.1423 12:-0.9342 
-0.3290954649370255 1:0.1762 2:-0.905 3:-0.8262 4:5.1208 5:-1.0954 6:2.4702 7:3.8226 8:12.3329 9:-2.1213 10:-1.0142 11:-2.846 12:-1.0142 
-2.069487887251611 1:-0.6211 2:-1.6984 3:-0.4743 4:-1.5213 5:-1.8974 6:-2.5959 7:11.0045 8:6.7516 9:7.2846 10:-1.0142 11:0.6211 12:-1.2728 
-0.4517751662716869 1:-1.5 2:-0.8706 3:1.9064 4:6.9387 5:23.25 6:6.5655 7:8.1803 8:42 9:0.1355 10:-0.905 11:14.1681 12:22.311 
-2.499142138892224 1:-0.4743 2:-1.2649 3:-1.2649 4:-0.4743 5:-0.4445 6:-2.1249 7:-1.2872 8:-0.6211 9:12.3329 10:-0.8178 11:-0.6211 12:0.7071 
-1.390428012448908 1:3.725 2:1.1619 3:-0.8706 4:-3.0832 5:-1.0279 6:2.4702 7:11.0045 8:0 9:0 10:-1.0607 11:-0.4743 12:-0.5883 
-10 1:-1.1988 2:1.2414 3:5.25 4:1.3887 5:1.5665 6:-1.7002 7:-1.7095 8:-1.0142 9:0.2657 10:7.7533 11:0.8706 12:-1.765 
-0.4881854306676716 1:0.4743 2:-0.1936 3:-1.5732 4:-2.6879 5:-0.9188 6:0.5957 7:-2.2058 8:-0.6211 9:-0.3162 10:-1.5855 11:23.261 12:-0.7746 
-10 1:-1.3582 2:-2.1711 3:1.4491 4:5.5895 5:-1.2247 6:0.5957 7:-5.921 8:0.9487 9:0.1006 10:0 11:0 12:1.7291 
-2.84900918342028 1:2.9642 2:-1.2649 3:-1.0984 4:-0.3162 5:1.0389 6:6.5655 7:-4.9663 8:-2.0232 9:-1.0142 10:-0.5582 11:11.347 12:-1.8974 
-5.374007482433653 1:6.0622 2:-1.9261 3:-1.3059 4:4.3257 5:0.8581 6:1.482 7:1.0597 8:1.4491 9:0.7071 10:-1.921 11:-2.5927 12:-2.5451 
-1.775329294631602 1:-2.1324 2:-1.057 3:-0.2657 4:-1.2872 5:-1.2197 6:-1.4991 7:-2.8062 8:1.0849 9:-0.303 10:7.7533 11:1.358 12:-0.9167 
-0.4107942606838833 1:0.7746 2:0.7109 3:-1.6785 4:-1.2728 5:-1.9378 6:6.5655 7:-4.9663 8:-0.3162 9:46.9598 10:-0.7379 11:1.057 12:-1.4636 
-0.2579774082065308 1:-0.414 2:1.8974 3:-0.2832 4:-1.6499 5:-0.905 6:10.6225 7:1.0597 8:-1.3582 9:-0.8706 10:-0.6608 11:-0.6211 12:-1.8974 
-3.55522584790771 1:0 2:-1.6992 3:3.9821 4:0.8018 5:3.0978 6:-4.4254 7:5.7816 8:-1.1979 9:-1.4767 10:-1.9836 11:1.8974 12:-1.7265 
-4.488159811319749 1:0.4445 2:0.6037 3:1.9064 4:6.9387 5:-0.9487 6:4.8045 7:1.0597 8:-0.7379 9:-0.6508 10:-2.7574 11:-0.7115 12:-1.0279 
-0.688418363630584 1:0.3408 2:4.4272 3:1.9261 4:0.0558 5:-1.2649 6:-2.3043 7:8.1803 8:-0.9939 9:-1.2649 10:-1.0371 11:-1.7428 12:-1.4767 
-8.610762209892545 1:-1.1078 2:1.3059 3:0.3939 4:-0.8503 5:-0.5721 6:-2.1249 7:-1.5095 8:1.6036 9:-0.7746 10:0.3162 11:-0.7746 12:-1.2247 
-1.291459425398023 1:0 2:-0.9487 3:0.6211 4:-1.2468 5:3.0832 6:-1.5885 7:-1.7095 8:-0.4743 9:-0.3162 10:0.1142 11:1.8974 12:-0.4743 
-9.970665133034201 1:-0.3408 2:0 3:-0.5234 4:3.3306 5:-0.9188 6:0.5957 7:-1.2872 8:-1.1068 9:-0.8706 10:0.414 11:1.73 12:8.7061 
-0.5236697789510439 1:-0.6608 2:-1.9588 3:-0.9167 4:-0.7746 5:0 6:6.5655 7:-5.921 8:-0.5883 9:-0.8178 10:18.6736 11:-1.5791 12:-1.5213 
-7.150103346431609 1:0 2:-0.9487 3:0.6211 4:-1.2468 5:3.0832 6:-1.5885 7:-1.7095 8:-0.4743 9:-0.3162 10:0.1142 11:1.8974 12:-0.4743 
-0.4167895661096448 1:-0.7746 2:-1.4661 3:-1.6321 4:-1.0386 5:-1.5213 6:-4.4254 7:1.0597 8:25.6144 9:-0.7746 10:-1.8067 11:-1.4055 12:8.7061 
-0.1044257765768767 1:-0.8581 2:-0.5477 3:5.9632 4:-1.4908 5:-1.7291 6:6.5655 7:-5.921 8:0.5112 9:-0.8503 10:-1.2649 11:-1.8974 12:-1.8974 
-9.987699999889459 1:2.7937 2:3.5911 3:3.9821 4:4.3257 5:12.3329 6:10.6225 7:5.7816 8:7.1785 9:5.6832 10:8.0178 11:1.8091 12:12.5083 
-5.359460429559356 1:3.725 2:6.6408 3:5.9632 4:7.5032 5:10.2247 6:4.8045 7:-1.5522 8:7.1587 9:3.8307 10:4.9152 11:7.0162 12:8.749 
-0.1210053023356651 1:-1.3582 2:-0.1762 3:-0.9487 4:-0.8503 5:-1.4055 6:0.0971 7:-1.5095 8:-1.2247 9:25.4558 10:-1.6602 11:-1.2872 12:12.5083 
-2.058843046139415 1:-0.6568 2:-1.4491 3:2.9162 4:2.1213 5:-1.1619 6:-4.4254 7:8.1803 8:-2.6833 9:-1.6565 10:-0.4743 11:-0.4743 12:-0.5883 
-0.03744343943933998 1:-1.2649 2:-0.9487 3:-1.8184 4:-2.3924 5:-0.5421 6:-3.5305 7:-3.7407 8:-0.4743 9:33.6783 10:-0.1936 11:-1.1619 12:0 
-0.06131944681743352 1:-0.4743 2:-0.7746 3:-0.3162 4:-0.3162 5:20.831 6:2.4702 7:-4.9663 8:-1.0279 9:-0.7071 10:3.5193 11:14.1681 12:-1.587 
-2.515432955410132 1:-1.0142 2:-0.8581 3:-0.5721 4:-2.8187 5:-2.4054 6:10.6225 7:-5.921 8:-1.818 9:-1.671 10:4.2685 11:0.6363 12:-1.4201 
-10 1:3.725 2:6.6408 3:5.9632 4:7.5032 5:10.2247 6:4.8045 7:-1.5522 8:7.1587 9:3.8307 10:4.9152 11:7.0162 12:8.749 
-10 1:3.725 2:6.6408 3:5.9632 4:7.5032 5:10.2247 6:4.8045 7:-1.5522 8:7.1587 9:3.8307 10:4.9152 11:7.0162 12:8.749 
-9.224230724510802 1:0.5721 2:7.3788 3:1.2728 4:0.4684 5:2.7111 6:-1.7002 7:-1.7095 8:1.5811 9:0.3278 10:1.914 11:-0.6211 12:-0.75 
-1.568591076667221 1:0.3408 2:4.4272 3:1.9261 4:0.0558 5:-1.2649 6:-2.3043 7:8.1803 8:-0.9939 9:-1.2649 10:-1.0371 11:-1.7428 12:-1.4767 
-8.408328761247548 1:-0.9299 2:-0.8549 3:0.7746 4:1.1619 5:-1.9261 6:0.0971 7:5.7816 8:-0.3093 9:-0.1936 10:0 11:-2.5927 12:-2.5451 
-10 1:1.1619 2:0 3:1.9064 4:-1.7265 5:-0.3693 6:-1.4991 7:8.1803 8:0.8178 9:-2.0545 10:-1.921 11:-2.5927 12:-2.5451 
-0.09218915015601983 1:-3.7947 2:-6.5841 3:-2.92 4:-4.0944 5:-4.0029 6:-1.7002 7:-1.7095 8:-6.8705 9:-2.7111 10:-3.4927 11:-4.7615 12:-4.0931 
-0.08023729934317002 1:-0.7746 2:-1.057 3:12.9904 4:-1.9106 5:-0.4743 6:6.5655 7:8.1803 8:-1.8067 9:-1.0142 10:7.5523 11:3.5193 12:-2.5451 
-3.569449978701008 1:-0.3721 2:-1.1116 3:-1.1062 4:0.8581 5:0.4445 6:-2.5959 7:-1.7095 8:-0.8027 9:3.3359 10:-1.6953 11:-0.8296 12:0 
-10 1:5.4303 2:24.8973 3:4.7411 4:2.0283 5:3.9165 6:0.5957 7:1.0597 8:1.792 9:3.7918 10:4.2685 11:3.4205 12:4.8789 
-10 1:3.725 2:6.6408 3:5.9632 4:7.5032 5:10.2247 6:4.8045 7:-1.5522 8:7.1587 9:3.8307 10:4.9152 11:7.0162 12:8.749 
-10 1:13.239 2:20.0446 3:26.0361 4:16.9119 5:20.2879 6:0.5957 7:5.7816 8:27.2408 9:22.7274 10:18.6736 11:11.347 12:24.1914 
-10 1:2.7937 2:3.5911 3:3.9821 4:4.3257 5:12.3329 6:10.6225 7:5.7816 8:7.1785 9:5.6832 10:8.0178 11:1.8091 12:12.5083 
-10 1:5.4303 2:24.8973 3:4.7411 4:2.0283 5:3.9165 6:0.5957 7:1.0597 8:1.792 9:3.7918 10:4.2685 11:3.4205 12:4.8789 
-10 1:14.4411 2:9.2486 3:10.1135 4:6.1664 5:6.8133 6:1.482 7:8.1803 8:21.4996 9:20.2849 10:22.9039 11:23.261 12:20.1934 
-8.431747243103384 1:18.8729 2:7.3788 3:1.2728 4:0.4684 5:2.7111 6:-1.7002 7:-1.7095 8:1.5811 9:0.3278 10:1.914 11:1.73 12:1.7291 
-10 1:3.725 2:6.6408 3:5.9632 4:7.5032 5:10.2247 6:4.8045 7:-1.5522 8:7.1587 9:3.8307 10:4.9152 11:7.0162 12:8.749 
-10 1:18.8729 2:7.3788 3:1.2728 4:0.4684 5:2.7111 6:-1.7002 7:-1.7095 8:1.5811 9:0.3278 10:1.914 11:1.73 12:1.7291 
-6.969370629558993 1:-0.3721 2:-0.3693 3:10.1135 4:6.1664 5:6.8133 6:1.482 7:8.1803 8:21.4996 9:20.2849 10:22.9039 11:23.261 12:20.1934 
-10 1:3.725 2:6.6408 3:5.9632 4:7.5032 5:10.2247 6:4.8045 7:-1.5522 8:7.1587 9:3.8307 10:4.9152 11:7.0162 12:8.749 
-3.98307096420539 1:5.4303 2:1.2414 3:1.2563 4:1.2131 5:-0.5421 6:-3.5305 7:1.0597 8:1.4491 9:1.7437 10:4.2685 11:2.3286 12:1.4908 
-10 1:2.7937 2:3.5911 3:3.9821 4:4.3257 5:12.3329 6:10.6225 7:5.7816 8:7.1785 9:5.6832 10:8.0178 11:1.8091 12:12.5083 
-10 1:5.4303 2:24.8973 3:4.7411 4:2.0283 5:3.9165 6:0.5957 7:1.0597 8:1.792 9:3.7918 10:4.2685 11:3.4205 12:4.8789 
-1.012201894728604 1:14.4411 2:9.2486 3:10.1135 4:6.1664 5:6.8133 6:1.482 7:8.1803 8:21.4996 9:20.2849 10:22.9039 11:7.0162 12:1.5791 
-10 1:3.725 2:6.6408 3:5.9632 4:7.5032 5:10.2247 6:4.8045 7:-1.5522 8:7.1587 9:3.8307 10:4.9152 11:7.0162 12:8.749 
-0.04959563381263497 1:-2.2414 2:-1.7265 3:-1.0371 4:-1.4908 5:3.5193 6:-2.1249 7:-4.9663 8:-2.0136 9:4.5695 10:-0.9487 11:23.261 12:-0.7746 
-1.175590837511696 1:-0.8581 2:-1.2247 3:-0.7071 4:2.1213 5:-1.5046 6:-1.7002 7:-0.2746 8:11.8154 9:2.2883 10:-2.3146 11:9.7571 12:-1.0162 
-0.2935911148149508 1:-1.0849 2:0 3:4.7411 4:-1.9039 5:-1.8418 6:10.6225 7:-2.2058 8:-1.2728 9:0.1989 10:-1.2649 11:-1.2728 12:-1.765 
-1.361156388004357 1:2.7937 2:-1.0371 3:-1.4491 4:19.9223 5:-1.0607 6:0.5957 7:-4.2061 8:-0.5937 9:0.8706 10:-1.5 11:-1.3024 12:-0.3162 
-10 1:-1.5 2:-0.7746 3:-0.7746 4:-0.4936 5:-0.7071 6:-4.2156 7:-5.921 8:0.9487 9:0.8706 10:-1.0142 11:-0.6211 12:0.3644 
-0.7990159161786216 1:-2.4673 2:3.5911 3:-1.3072 4:6.1664 5:-1.3631 6:-4.4254 7:-5.921 8:-2.1213 9:0.3278 10:4.2685 11:-2.4244 12:-1.7541 
-10 1:5.4303 2:1.2414 3:1.2563 4:1.2131 5:-0.5421 6:-3.5305 7:1.0597 8:1.4491 9:1.7437 10:4.2685 11:2.3286 12:1.4908 
-10 1:18.8729 2:7.3788 3:1.2728 4:0.4684 5:2.7111 6:-1.7002 7:-1.7095 8:1.5811 9:0.3278 10:1.914 11:1.73 12:1.7291 
-10 1:2.7937 2:3.5911 3:3.9821 4:4.3257 5:12.3329 6:10.6225 7:5.7816 8:7.1785 9:5.6832 10:8.0178 11:1.8091 12:12.5083 
-10 1:5.4303 2:24.8973 3:4.7411 4:2.0283 5:3.9165 6:0.5957 7:1.0597 8:1.792 9:3.7918 10:4.2685 11:3.4205 12:4.8789 
-10 1:18.8729 2:7.3492 3:3.9821 4:5.1208 5:30.1771 6:10.6225 7:11.0045 8:6.7516 9:7.2846 10:4.2756 11:12.8899 12:8.8997 
-10 1:14.4411 2:9.2486 3:10.1135 4:6.1664 5:6.8133 6:1.482 7:8.1803 8:21.4996 9:20.2849 10:22.9039 11:23.261 12:20.1934 
-10 1:18.8729 2:7.3788 3:1.2728 4:0.4684 5:2.7111 6:-1.7002 7:-1.7095 8:1.5811 9:0.3278 10:1.914 11:1.73 12:1.7291 
-0.5568802993719848 1:3.725 2:-0.9925 3:0.4196 4:1.271 5:0.143 6:-1.4991 7:11.0045 8:14.6975 9:-0.4243 10:-1.3059 11:-0.9995 12:-1.4636 
-10 1:13.239 2:20.0446 3:26.0361 4:16.9119 5:20.2879 6:0.5957 7:5.7816 8:27.2408 9:22.7274 10:18.6736 11:11.347 12:24.1914 
-10 1:5.4303 2:1.2414 3:1.2563 4:1.2131 5:-0.5421 6:-3.5305 7:1.0597 8:1.4491 9:1.7437 10:4.2685 11:2.3286 12:1.4908 
-10 1:2.7937 2:3.5911 3:3.9821 4:4.3257 5:12.3329 6:10.6225 7:5.7816 8:7.1785 9:5.6832 10:8.0178 11:1.8091 12:12.5083 
-10 1:5.4303 2:24.8973 3:4.7411 4:2.0283 5:3.9165 6:0.5957 7:1.0597 8:1.792 9:3.7918 10:4.2685 11:3.4205 12:4.8789 
-10 1:18.8729 2:7.3788 3:1.2728 4:0.4684 5:2.7111 6:-1.7002 7:-1.7095 8:1.5811 9:0.3278 10:1.914 11:1.73 12:1.7291 
-10 1:3.725 2:-0.9925 3:0.4196 4:1.271 5:0.143 6:-1.4991 7:11.0045 8:14.6975 9:-0.4243 10:-1.3059 11:-0.9995 12:-1.4636 
-10 1:3.725 2:6.6408 3:5.9632 4:7.5032 5:10.2247 6:4.8045 7:-1.5522 8:7.1587 9:3.8307 10:4.9152 11:7.0162 12:8.749 
-5.73015087442943 1:0.5206 2:-0.2631 3:-0.5873 4:1.65 5:1.0389 6:6.5655 7:-2.5752 8:0.741 9:0.1989 10:-0.1627 11:0 12:0.2832 
-10 1:5.4303 2:1.2414 3:1.2563 4:1.2131 5:-0.5421 6:-3.5305 7:1.0597 8:1.4491 9:1.7437 10:4.2685 11:2.3286 12:1.4908 
-10 1:0.5721 2:7.3788 3:1.2728 4:0.4684 5:2.7111 6:-1.7002 7:-1.7095 8:1.5811 9:0.3278 10:1.914 11:1.73 12:1.7291 
-10 1:5.4303 2:1.2414 3:1.2563 4:1.2131 5:-0.5421 6:-3.5305 7:1.0597 8:1.4491 9:1.7437 10:4.2685 11:2.3286 12:1.4908 
-10 1:0.5721 2:7.3788 3:1.2728 4:0.4684 5:2.7111 6:-1.7002 7:-1.7095 8:1.5811 9:0.3278 10:1.914 11:1.73 12:1.7291 
-10 1:3.725 2:-0.9925 3:0.4196 4:1.271 5:0.143 6:-1.4991 7:11.0045 8:14.6975 9:-0.4243 10:-1.3059 11:-0.9995 12:-1.4636 
-10 1:0.5206 2:-0.2631 3:-0.5873 4:1.65 5:1.0389 6:6.5655 7:-2.5752 8:0.741 9:0.1989 10:-0.1627 11:0 12:0.2832 
-10 1:2.7937 2:3.5911 3:3.9821 4:4.3257 5:12.3329 6:10.6225 7:5.7816 8:7.1785 9:5.6832 10:8.0178 11:1.8091 12:12.5083 
-10 1:5.4303 2:24.8973 3:4.7411 4:2.0283 5:3.9165 6:0.5957 7:1.0597 8:1.792 9:3.7918 10:4.2685 11:3.4205 12:4.8789 
-10 1:3.725 2:-0.9925 3:0.4196 4:1.271 5:0.143 6:-1.4991 7:11.0045 8:14.6975 9:-0.4243 10:-1.3059 11:-0.9995 12:-1.4636 
-10 1:0.5206 2:-0.2631 3:-0.5873 4:1.65 5:1.0389 6:6.5655 7:-2.5752 8:0.741 9:0.1989 10:-0.1627 11:0 12:0.2832 
-0.2829462664739892 1:-2.4673 2:3.5911 3:-1.3072 4:-1.0371 5:30.1771 6:10.6225 7:-5.921 8:-2.1213 9:0.3278 10:4.2685 11:-2.4244 12:-1.7541 
-2.973414024882563 1:0.6995 2:-0.414 3:0.7379 4:0.5411 5:-0.8018 6:0.5957 7:-1.7095 8:-0.7379 9:-0.9995 10:-0.0909 11:-0.4743 12:-0.2914 
-10 1:5.4303 2:1.2414 3:1.2563 4:1.2131 5:-0.5421 6:-3.5305 7:1.0597 8:1.4491 9:1.7437 10:4.2685 11:2.3286 12:1.4908 
-10 1:2.7937 2:3.5911 3:3.9821 4:4.3257 5:12.3329 6:10.6225 7:5.7816 8:7.1785 9:5.6832 10:8.0178 11:1.8091 12:12.5083 
-10 1:3.725 2:6.6408 3:5.9632 4:7.5032 5:10.2247 6:4.8045 7:-1.5522 8:7.1587 9:3.8307 10:4.9152 11:7.0162 12:8.749 
-10 1:0.5206 2:-0.2631 3:-0.5873 4:1.65 5:1.0389 6:6.5655 7:-2.5752 8:0.741 9:0.1989 10:-0.1627 11:0 12:0.2832 
-7.010384917306576 1:0.6995 2:3.0984 3:1.2272 4:-0.2176 5:-1.3059 6:1.482 7:1.0597 8:-0.3721 9:3.5193 10:-0.75 11:-0.5593 12:-0.9995 
-5.89282883427865 1:-0.8503 2:-0.7746 3:-1.0371 4:0 5:-2.288 6:0.5957 7:-1.5522 8:1.3631 9:-0.6211 10:4.2756 11:-0.8503 12:1.5791 
-2.221182958490446 1:-1.0142 2:-1.271 3:1.9064 4:-0.2429 5:-1.6048 6:-4.4254 7:5.7816 8:-0.3093 9:-1.0371 10:3.5193 11:22.1511 12:1.0279 
-10 1:5.4303 2:1.2414 3:1.2563 4:1.2131 5:-0.5421 6:-3.5305 7:1.0597 8:1.4491 9:1.7437 10:4.2685 11:2.3286 12:1.4908 
-10 1:2.7937 2:3.5911 3:3.9821 4:4.3257 5:12.3329 6:10.6225 7:5.7816 8:7.1785 9:5.6832 10:8.0178 11:1.8091 12:12.5083 
-0.09658037693667154 1:5.4303 2:24.8973 3:4.7411 4:2.0283 5:3.9165 6:0.5957 7:1.0597 8:1.792 9:3.7918 10:4.2685 11:-0.3644 12:-1.2247 
-10 1:-0.8507 2:-1.6565 3:8.9663 4:-1.0349 5:-1.346 6:10.6225 7:-0.2746 8:-0.6852 9:-0.6124 10:-0.4684 11:-0.7379 12:-0.2914 
-10 1:3.725 2:6.6408 3:5.9632 4:7.5032 5:10.2247 6:4.8045 7:-1.5522 8:7.1587 9:3.8307 10:4.9152 11:7.0162 12:8.749 
-10 1:0.5206 2:-0.2631 3:-0.5873 4:1.65 5:1.0389 6:6.5655 7:-2.5752 8:0.741 9:0.1989 10:-0.1627 11:0 12:0.2832 
-10 1:5.4303 2:1.2414 3:1.2563 4:1.2131 5:-0.5421 6:-3.5305 7:1.0597 8:1.4491 9:1.7437 10:4.2685 11:2.3286 12:1.4908 
-10 1:18.8729 2:7.3788 3:1.2728 4:0.4684 5:2.7111 6:-1.7002 7:-1.7095 8:1.5811 9:0.3278 10:1.914 11:1.73 12:1.7291 
-8.515481198712772 1:-0.414 2:0.4743 3:1.6602 4:-1.0349 5:-0.143 6:-2.1249 7:-0.7878 8:0.5721 9:-1.4661 10:7.7533 11:0.4445 12:0 
-10 1:2.2883 2:3.5193 3:1.2728 4:0.5411 5:2.789 6:-2.5959 7:-5.921 8:0.5112 9:3.4325 10:1.9588 11:-1.0603 12:0.2587 
-10 1:2.1213 2:4.4272 3:1.9261 4:-0.5234 5:4.9497 6:0.303 7:0 8:1.8067 9:6.6408 10:2.3941 11:1.8091 12:4.9497 
-0.141146729240942 1:1.0142 2:-1.2649 3:-1.0386 4:24.2592 5:6.8133 6:1.482 7:5.7816 8:7.1785 9:0 10:-0.2587 11:-0.972 12:-0.9115 
-3.515279649448515 1:0.3162 2:-0.8581 3:1.2872 4:-0.8581 5:0.9487 6:10.6225 7:-4.2061 8:0.75 9:-1.2728 10:-0.75 11:-0.8503 12:2.288 
-10 1:-0.3721 2:-1.1116 3:-1.1062 4:0.8581 5:0.4445 6:-2.5959 7:-1.7095 8:-0.8027 9:3.3359 10:-1.6953 11:-0.8296 12:0 
-0.5360419810516462 1:-1.5791 2:-0.8549 3:-1.5213 4:-1.1068 5:-1.2728 6:-2.1249 7:-1.5095 8:-1.6048 9:-1.4661 10:7.7533 11:0.2397 12:22.311 
-10 1:2.9642 2:5.0596 3:5.4611 4:1.3887 5:6.6408 6:1.482 7:-2.5752 8:0.741 9:0.8581 10:1.792 11:3.047 12:9.1706 
-0.7751307454531413 1:2.1213 2:-0.7071 3:0.4196 4:-0.75 5:-1.9588 6:-3.5305 7:8.1803 8:-1.1484 9:-0.4467 10:1.4908 11:12 12:-0.7071 
-1.700424910418233 1:-0.6037 2:-0.9167 3:-0.8178 4:0.4684 5:0.6211 6:-2.3043 7:-2.8062 8:-1.2563 9:0.2914 10:-2.5178 11:-1.614 12:24.1914 
-1.032073342212225 1:-1.1988 2:5.0596 3:5.4611 4:-0.8581 5:-1.4491 6:-1.7002 7:11.0045 8:3.9626 9:-1.4661 10:-0.1936 11:-1.6898 12:-0.2657 
-10 1:5.4303 2:1.2414 3:1.2563 4:1.2131 5:-0.5421 6:-3.5305 7:1.0597 8:1.4491 9:1.7437 10:4.2685 11:2.3286 12:1.4908 
-10 1:2.7937 2:3.5911 3:3.9821 4:4.3257 5:12.3329 6:10.6225 7:5.7816 8:7.1785 9:5.6832 10:8.0178 11:1.8091 12:12.5083 
-10 1:5.4303 2:24.8973 3:4.7411 4:2.0283 5:3.9165 6:0.5957 7:1.0597 8:1.792 9:3.7918 10:4.2685 11:3.4205 12:4.8789 
-10 1:18.8729 2:7.3492 3:3.9821 4:5.1208 5:30.1771 6:10.6225 7:11.0045 8:6.7516 9:7.2846 10:4.2756 11:12.8899 12:8.8997 
-9.562184419614791 1:14.4411 2:9.2486 3:10.1135 4:6.1664 5:6.8133 6:1.482 7:8.1803 8:21.4996 9:20.2849 10:22.9039 11:7.0162 12:1.5791 
-10 1:-0.8507 2:-1.6565 3:8.9663 4:-1.0349 5:-1.346 6:10.6225 7:-0.2746 8:-0.6852 9:-0.6124 10:-0.4684 11:-0.7379 12:-0.2914 
-10 1:3.725 2:6.6408 3:5.9632 4:7.5032 5:10.2247 6:4.8045 7:-1.5522 8:7.1587 9:3.8307 10:4.9152 11:7.0162 12:8.749 
-10 1:0.5206 2:-0.2631 3:-0.5873 4:1.65 5:1.0389 6:6.5655 7:-2.5752 8:0.741 9:0.1989 10:-0.1627 11:0 12:0.2832 
-10 1:5.4303 2:1.2414 3:1.2563 4:1.2131 5:-0.5421 6:-3.5305 7:1.0597 8:1.4491 9:1.7437 10:4.2685 11:2.3286 12:1.4908 
-9.950022701863487 1:2.7937 2:3.5911 3:3.9821 4:4.3257 5:12.3329 6:10.6225 7:5.7816 8:7.1785 9:5.6832 10:8.0178 11:1.8091 12:12.5083 
-10 1:5.4303 2:24.8973 3:4.7411 4:2.0283 5:3.9165 6:0.5957 7:1.0597 8:1.792 9:3.7918 10:4.2685 11:3.4205 12:4.8789 
-10 1:18.8729 2:7.3492 3:3.9821 4:5.1208 5:30.1771 6:10.6225 7:11.0045 8:6.7516 9:7.2846 10:3.7185 11:0.4743 12:8.8997 
-10 1:-0.3721 2:-0.3693 3:10.1135 4:6.1664 5:6.8133 6:1.482 7:8.1803 8:21.4996 9:20.2849 10:22.9039 11:23.261 12:20.1934 
-9.588996768660859 1:-0.8507 2:-1.6565 3:8.9663 4:-1.0349 5:-1.346 6:10.6225 7:-0.2746 8:-0.6852 9:-0.6124 10:-0.4684 11:-0.7379 12:-0.2914 
-10 1:3.725 2:6.6408 3:5.9632 4:7.5032 5:10.2247 6:4.8045 7:-1.5522 8:7.1587 9:3.8307 10:4.9152 11:7.0162 12:8.749 
-10 1:0.5206 2:-0.2631 3:-0.5873 4:1.65 5:1.0389 6:6.5655 7:-2.5752 8:0.741 9:0.1989 10:-0.1627 11:0 12:0.2832 
-2.194846415170467 1:-0.7218 2:-1.0142 3:4.7411 4:24.2592 5:20.831 6:2.4702 7:-4.9663 8:-0.9167 9:2.1213 10:3.7185 11:-1.7196 12:0.1762 
-1.313656671261267 1:-1.8116 2:-1.9082 3:-2.9417 4:3.3306 5:3.0978 6:-4.4254 7:11.0045 8:6.7516 9:7.2846 10:4.2756 11:-1.8974 12:-2.1019 
-0.8726215956267958 1:13.239 2:3.5355 3:1.1068 4:0.8581 5:-0.6211 6:-4.2156 7:-0.2746 8:11.8154 9:22.7274 10:-0.9487 11:0.3162 12:4.2691 
-4.425253325044558 1:4.8893 2:4.0591 3:4.9542 4:2.4649 5:1.5665 6:-1.7002 7:11.0045 8:3.9626 9:1.9261 10:5.8246 11:-0.4743 12:-0.3644 
-2.798568740210876 1:-2.2819 2:-0.8503 3:-0.7746 4:-0.9762 5:-0.4936 6:-1.7002 7:11.0045 8:3.9626 9:1.9261 10:5.8246 11:11.8001 12:2.288 
-0.6393989435175376 1:-0.9299 2:0.7746 3:0.4445 4:0.8581 5:-0.4936 6:-1.7002 7:11.0045 8:6.7516 9:-2.2151 10:-0.5582 11:-0.4743 12:-0.3162 
