svm_type c_svc
kernel_type rbf
gamma 0.005
nr_class 2
total_sv 203
rho 0.14947
label 1 -1
probA -3.51865
probB -0.0697216
nr_sv 91 112
SV
1.157198386145233 1:5.5962 2:0.8581 3:4.7434 4:16.2369 5:-0.3644 6:-2.089 7:28.8421 8:31.1359 9:13.0788 10:9.7223 11:1.4576 12:1.4661 
1.306249840637342 1:0.3707 2:2.4842 3:8.4938 4:4.8627 5:4.2691 6:-1.1405 7:28.8421 8:24.0833 9:10.3523 10:18.4674 11:-1.3672 12:1.4491 
1.149417476262815 1:16.0262 2:4.2691 3:0 4:0.3939 5:28.2375 6:13.8001 7:28.8421 8:24.0833 9:55.9723 10:0.5145 11:0.7071 12:0.069 
1.149306328760199 1:44.5477 2:28.7569 3:25.0555 4:32.8805 5:67.6954 6:6.9667 7:-4.3331 8:2.2883 9:55.9723 10:6.5517 11:-0.1762 12:14.33 
0.7073825491756483 1:44.5477 2:28.7569 3:25.0555 4:32.8805 5:67.6954 6:6.9667 7:15.5347 8:44.9081 9:0.5303 10:4.4336 11:4.5544 12:14.33 
1.148632412272655 1:3.0984 2:24.3404 3:26.9697 4:19.0059 5:16.4545 6:-0.1019 7:5.1048 8:9.6054 9:15.8461 10:0 11:0 12:13.1229 
1.148504230559833 1:0 2:1.0371 3:31.8198 4:12.297 5:44.9233 6:3.1153 7:5.1048 8:35.1013 9:25.24 10:17.3369 11:51.7032 12:51.7032 
0.684321359115966 1:44.5477 2:28.7569 3:25.0555 4:32.8805 5:67.6954 6:6.9667 7:15.5347 8:44.9081 9:55.9723 10:3.6285 11:19.1646 12:0 
1.847846601367168 1:3.047 2:20.2978 3:12.0748 4:17.017 5:18.7409 6:13.8001 7:28.8421 8:31.1359 9:8.7883 10:18.4674 11:18.4033 12:14.0903 
0.4365711135836204 1:16.0262 2:28.7569 3:16.9794 4:16.2369 5:18.7409 6:13.8001 7:28.8421 8:31.1359 9:8.7883 10:18.4674 11:18.4033 12:14.0903 
1.189876737231514 1:16.0262 2:28.7569 3:16.9794 4:16.2369 5:18.7409 6:13.8001 7:28.8421 8:31.1359 9:13.0788 10:9.7223 11:35.3828 12:17.6523 
2.414191046823587 1:5.1088 2:2.2778 3:8.4938 4:16.2184 5:28.2375 6:13.8001 7:28.8421 8:31.1359 9:13.0788 10:9.7223 11:35.3828 12:17.6523 
0.2217900702351982 1:14.3688 2:20.2978 3:12.0748 4:17.017 5:18.7409 6:13.8001 7:28.8421 8:31.1359 9:13.0788 10:8.7753 11:18.4033 12:14.0903 
0.08880216466600924 1:16.0262 2:28.7569 3:16.9794 4:16.2369 5:9.1924 6:3.1842 7:28.8421 8:31.1359 9:6.0827 10:6.5517 11:35.3828 12:14.0903 
1.998621236870144 1:16.0262 2:7.8525 3:3.0984 4:6.2989 5:18.7409 6:13.8001 7:28.8421 8:31.1359 9:8.7883 10:11.2746 11:35.3828 12:14.0903 
5.349904770518723 1:3.5193 2:5.2855 3:0.2905 4:0.6995 5:1.0279 6:-2.089 7:28.8421 8:24.0833 9:2.846 10:-2.6414 11:-2.4706 12:-3.0305 
1.149502356736965 1:44.5477 2:28.7569 3:-0.6608 4:0.3721 5:67.6954 6:6.9667 7:15.5347 8:44.9081 9:0.6037 10:0.8706 11:1.1062 12:14.33 
1.149784288367401 1:1.1619 2:28.7569 3:25.0555 4:32.8805 5:67.6954 6:6.9667 7:-4.3331 8:2.2883 9:55.9723 10:0.4445 11:1.1062 12:14.33 
0.6241409408302939 1:44.5477 2:28.7569 3:25.0555 4:32.8805 5:67.6954 6:6.9667 7:15.5347 8:44.9081 9:55.9723 10:-1.0607 11:0.5721 12:4.6591 
0.9423917187992761 1:44.5477 2:28.7569 3:25.0555 4:32.8805 5:67.6954 6:6.9667 7:15.5347 8:44.9081 9:6.0083 10:0.4743 11:19.1646 12:6.6408 
0.4180397573343618 1:44.5477 2:28.7569 3:25.0555 4:32.8805 5:67.6954 6:6.9667 7:15.5347 8:44.9081 9:55.9723 10:3.6285 11:19.1646 12:6.6408 
0.8525184355460633 1:3.8505 2:3.7503 3:0 4:3.5193 5:6.6408 6:13.8001 7:28.8421 8:31.1359 9:13.0788 10:9.7223 11:35.3828 12:17.6523 
2.964322517140699 1:14.3688 2:20.2978 3:12.0748 4:17.017 5:18.7409 6:13.8001 7:28.8421 8:31.1359 9:8.7883 10:-0.4629 11:0.3162 12:5.4524 
0.5456524168112888 1:16.0262 2:6.6408 3:3.0984 4:6.2989 5:18.7409 6:13.8001 7:28.8421 8:0 9:0 10:11.2746 11:5.9537 12:4.2013 
1.355600821279069 1:0.2176 2:-0.4196 3:12.0748 4:0 5:1.5855 6:3.1153 7:28.8421 8:31.1359 9:8.7883 10:0.905 11:0.7746 12:14.0903 
1.412558591544425 1:16.0262 2:20.2978 3:12.0748 4:17.017 5:18.7409 6:13.8001 7:28.8421 8:31.1359 9:13.0788 10:9.7223 11:1.4884 12:1.6218 
1.565057280210097 1:14.3688 2:20.2978 3:12.0748 4:17.017 5:4.2426 6:0.43 7:28.8421 8:31.1359 9:6.0827 10:6.5517 11:35.3828 12:14.0903 
0.4149878659415734 1:0.7071 2:6.6408 3:3.0984 4:6.2989 5:18.7409 6:13.8001 7:28.8421 8:31.1359 9:8.7883 10:18.4674 11:18.4033 12:14.0903 
1.126428360423002 1:16.0262 2:28.7569 3:16.9794 4:16.2369 5:18.7409 6:13.8001 7:28.8421 8:31.1359 9:6.0827 10:6.5517 11:35.3828 12:3.047 
1.316462328826467 1:16.0262 2:20.2978 3:-0.9946 4:6.2989 5:18.7409 6:13.8001 7:28.8421 8:31.1359 9:13.0788 10:9.7223 11:35.3828 12:14.0903 
0.8727670285969624 1:0.3693 2:2.846 3:0.8581 4:1.1619 5:18.7409 6:13.8001 7:28.8421 8:31.1359 9:16.1276 10:2.846 11:-0.2176 12:0.8178 
0.13351834614474 1:3.7485 2:0 3:3.5193 4:6.2989 5:18.7409 6:13.8001 7:28.8421 8:31.1359 9:1.3582 10:1.2197 11:2.1213 12:1.0142 
0.1942021250535945 1:2.7937 2:1.2563 3:-0.3162 4:3.0984 5:3.5193 6:-0.1019 7:28.8421 8:31.1359 9:-0.7071 10:0 11:-2.4706 12:-3.0305 
1.171550160237954 1:0.7071 2:2.4842 3:0.0909 4:1.8974 5:0.8581 6:-1.7391 7:28.8421 8:24.0833 9:10.3523 10:18.4674 11:18.4033 12:14.0903 
0.396644632072632 1:2.1301 2:6.0083 3:1.4491 4:0.7071 5:28.2375 6:13.8001 7:28.8421 8:24.0833 9:10.3523 10:11.2746 11:5.9537 12:1.1619 
0.8071752964765898 1:0.4743 2:2.5187 3:16.9794 4:16.2184 5:28.2375 6:13.8001 7:28.8421 8:31.1359 9:13.0788 10:0 11:0.3162 12:5.4524 
0.2694022801210677 1:2.1213 2:5.4334 3:8.4938 4:4.0003 5:1.2649 6:0.43 7:28.8421 8:31.1359 9:1.6602 10:0 11:0.7115 12:5.4524 
0.4688563473612855 1:0.3693 2:5.4334 3:8.4938 4:4.8627 5:4.2691 6:-1.1405 7:28.8421 8:31.1359 9:6.0827 10:6.5517 11:35.3828 12:14.0903 
0.1596530493080865 1:2.789 2:2.846 3:0.5234 4:6.2989 5:18.7409 6:13.8001 7:28.8421 8:31.1359 9:8.7883 10:18.4674 11:18.4033 12:14.0903 
0.9464831560941319 1:16.0262 2:28.7569 3:16.9794 4:16.2369 5:18.7409 6:13.8001 7:28.8421 8:31.1359 9:1.6602 10:1.4491 11:1.4576 12:2.7111 
1.720446278472248 1:-1.2563 2:6.9714 3:6.6408 4:-1.792 5:6.6408 6:13.8001 7:28.8421 8:3.5193 9:0 10:-0.8372 11:2.846 12:-0.2535 
0.05766098551635154 1:2.789 2:2.846 3:5.1487 4:3.067 5:2.2883 6:-4.1295 7:28.8421 8:31.1359 9:5.3807 10:4.0666 11:35.3828 12:1.8376 
0.9854670532305023 1:0.9487 2:28.7569 3:2.846 4:0.8581 5:18.7409 6:13.8001 7:28.8421 8:31.1359 9:2.789 10:4.7615 11:18.4033 12:14.0903 
0.9314794595065364 1:16.0262 2:28.7569 3:16.9794 4:16.2369 5:4.2426 6:0.43 7:28.8421 8:31.1359 9:13.0788 10:2.846 11:2.846 12:1.0462 
0.9562764873285882 1:14.3688 2:20.2978 3:12.0748 4:1.0371 5:0.143 6:3.1153 7:28.8421 8:1.1062 9:0.5721 10:6.5517 11:1.4576 12:1.8676 
2.284520302662881 1:3.5193 2:6.9714 3:6.6408 4:6.2989 5:1.8974 6:3.1153 7:28.8421 8:-1.1062 9:-1.6785 10:6.5517 11:0.4743 12:0.4743 
1.673696875587635 1:14.3688 2:0.5582 3:6.6408 4:6.2989 5:4.4943 6:-1.1405 7:28.8421 8:-0.414 9:0.8581 10:0.3644 11:-0.6211 12:14.0903 
0.6029857651266881 1:3.7485 2:6.9714 3:2.846 4:16.2369 5:4.2426 6:0.43 7:28.8421 8:24.0833 9:10.3523 10:11.2746 11:3.1629 12:1.0279 
1.049634428526029 1:-2.1711 2:20.2978 3:1.4491 4:-0.1762 5:28.2375 6:13.8001 7:28.8421 8:31.1359 9:5.3807 10:4.0666 11:35.3828 12:4.2691 
0.8443997202115297 1:16.0262 2:0.5582 3:2.846 4:16.2369 5:1.8974 6:0 7:28.8421 8:31.1359 9:6.0827 10:6.5517 11:35.3828 12:0.3162 
0.8747140077126907 1:16.0262 2:4.2691 3:3.5193 4:6.2989 5:18.7409 6:13.8001 7:28.8421 8:31.1359 9:1.3582 10:1.8974 11:1.8974 12:1.6218 
0.8431661310072864 1:14.3688 2:20.2978 3:0 4:1.4491 5:2.2883 6:0.43 7:28.8421 8:31.1359 9:5.3807 10:4.0666 11:35.3828 12:4.2691 
0.1873092794336054 1:2.1301 2:-0.4196 3:8.4938 4:4.8627 5:0 6:3.1842 7:28.8421 8:31.1359 9:6.0827 10:6.5517 11:35.3828 12:0 
0.6576782672549001 1:2.789 2:0 3:3.0984 4:6.2989 5:18.7409 6:13.8001 7:28.8421 8:31.1359 9:2.789 10:4.7615 11:18.4033 12:14.0903 
0.6841890224948231 1:16.0262 2:28.7569 3:16.9794 4:16.2369 5:4.2426 6:0.43 7:28.8421 8:31.1359 9:13.0788 10:8.7753 11:18.4033 12:14.0903 
0.7018005590307591 1:1.8974 2:0.7746 3:16.9794 4:16.2369 5:9.1924 6:3.1842 7:28.8421 8:31.1359 9:6.0827 10:6.5517 11:0.8581 12:0 
0.9257420237486652 1:16.0262 2:7.8525 3:3.0984 4:6.2989 5:18.7409 6:13.8001 7:28.8421 8:3.5193 9:0 10:4.7615 11:18.4033 12:14.0903 
0.8453644665677516 1:16.0262 2:28.7569 3:16.9794 4:4.8627 5:2.2883 6:0.43 7:28.8421 8:31.1359 9:13.0788 10:9.7223 11:35.3828 12:14.0903 
0.131925255398824 1:5.1088 2:2.2778 3:8.4938 4:16.2369 5:0.2914 6:6.9667 7:28.8421 8:31.1359 9:5.3807 10:4.0666 11:35.3828 12:1.8376 
0.4344711986166407 1:2.846 2:1.8974 3:1.8974 4:16.2369 5:0.2914 6:6.9667 7:28.8421 8:31.1359 9:6.0827 10:6.5517 11:35.3828 12:1.8376 
1.435730179091376 1:16.0262 2:28.7569 3:-1.4636 4:6.2989 5:18.7409 6:13.8001 7:28.8421 8:31.1359 9:5.3807 10:4.0666 11:0.9487 12:1.1619 
0.8083063572537457 1:0.2176 2:0.4445 3:-1.4569 4:-0.9851 5:-1.7269 6:-1.1405 7:28.8421 8:31.1359 9:8.7883 10:11.2746 11:35.3828 12:-0.8433 
0.9418498302841919 1:16.0262 2:20.2978 3:8.4938 4:16.2369 5:4.4943 6:-1.1405 7:28.8421 8:31.1359 9:-0.6708 10:3.5355 11:19.1646 12:0.414 
3.371349906304338 1:3.7485 2:0.414 3:0.4445 4:0.8699 5:28.2375 6:13.8001 7:28.8421 8:0.2535 9:1.1619 10:1.1619 11:2.846 12:1.0462 
10 1:0.7071 2:1.0371 3:4.7434 4:-0.1142 5:0 6:-2.089 7:-3.638 8:-0.3487 9:1.3582 10:1.3887 11:-1.3887 12:0.5721 
6.112424869587721 1:0.9487 2:0 3:-0.1355 4:-1.2563 5:2.846 6:3.1842 7:28.8421 8:24.0833 9:6.0083 10:1.8974 11:1.8974 12:0.5721 
1.152461019279458 1:2.1213 2:1.4491 3:0.5721 4:-0.1142 5:0.7746 6:0.43 7:28.8421 8:-0.7115 9:1.8974 10:4.4336 11:19.1646 12:-1.099 
1.041455586747689 1:1.8974 2:0.7746 3:16.9794 4:4.0003 5:2.846 6:3.1153 7:-3.638 8:1.6562 9:0.2176 10:0.414 11:19.1646 12:-1.099 
2.188746613158159 1:14.3688 2:7.8525 3:-0.7047 4:0.8699 5:3.4325 6:-0.1019 7:-4.0741 8:-2.1118 9:1.1818 10:3.5355 11:4.5544 12:1.8974 
10 1:3.5193 2:0 3:1.9378 4:-0.3408 5:-1.4727 6:-1.7091 7:-3.638 8:1.6562 9:0.6037 10:0.8706 11:0 12:0 
10 1:-0.3162 2:1.4491 3:2.846 4:1.0142 5:3.4325 6:-0.1019 7:-3.4513 8:-0.3408 9:1.4491 10:-0.3162 11:1.4491 12:0.4743 
10 1:1.1619 2:1.1619 3:0.7115 4:4.2691 5:-0.6608 6:-1.1405 7:-3.4809 8:-1.6214 9:2.846 10:2.846 11:0.7379 12:0.3693 
4.32356879839199 1:0.9487 2:1.8974 3:0.2905 4:0.3939 5:-1.7269 6:-1.1405 7:-4.4943 8:2.846 9:0.1142 10:0.5145 11:5.9537 12:2.846 
0.9206789811833105 1:0 2:2.4842 3:12.0748 4:1.4491 5:1.8974 6:-1.1405 7:-4.3331 8:2.2883 9:10.3523 10:18.4674 11:0.4445 12:1.4491 
2.296170730557028 1:5.1088 2:1.1619 3:0.7746 4:0.3939 5:-0.4445 6:3.1153 7:28.8421 8:24.0833 9:0.4445 10:0 11:0.7071 12:5.4524 
1.08127102647835 1:1.1619 2:-1.0386 3:-0.2176 4:0.8699 5:28.2375 6:13.8001 7:-3.4201 8:2.846 9:0.4743 10:6.5517 11:3.6742 12:-1.6048 
0.4434067369599733 1:2.2883 2:5.4334 3:-0.9946 4:-0.1355 5:0.8581 6:-1.7091 7:28.8421 8:24.0833 9:1.1818 10:3.5355 11:19.1646 12:-0.2657 
6.960524275804426 1:2.1213 2:0.3721 3:1.4491 4:1.0142 5:28.2375 6:13.8001 7:-3.638 8:1.6562 9:1.1818 10:0 11:-0.5112 12:1.4491 
1.396841573347038 1:0.3162 2:0.5721 3:16.9794 4:16.2184 5:3.4325 6:-0.1019 7:-3.638 8:0.7746 9:0.3162 10:2.846 11:1.8974 12:0.6211 
1.149461252937538 1:31.558 2:20.2978 3:31.8198 4:-0.1142 5:1.3059 6:3.1153 7:5.1048 8:35.1013 9:25.24 10:0.414 11:1.0371 12:0 
0.732540287216676 1:3.8505 2:3.7503 3:0 4:6.0083 5:18.7409 6:13.8001 7:28.8421 8:24.0833 9:10.3523 10:18.4674 11:18.4033 12:1.1619 
0.7500105430875008 1:0 2:-0.5593 3:8.4938 4:16.2184 5:28.2375 6:13.8001 7:28.8421 8:24.0833 9:10.3523 10:2.846 11:-0.9007 12:1.0142 
1.135545001974817 1:16.0262 2:28.7569 3:16.9794 4:16.2184 5:28.2375 6:13.8001 7:28.8421 8:2.846 9:1.4491 10:-0.5883 11:-1.0462 12:1.0142 
1.910345750007092 1:16.7084 2:24.3404 3:26.9697 4:19.0059 5:16.4545 6:-0.1019 7:5.1048 8:9.6054 9:15.8461 10:15.2652 11:35.3828 12:13.1229 
10 1:16.7084 2:24.3404 3:26.9697 4:19.0059 5:16.4545 6:-0.1019 7:5.1048 8:9.6054 9:15.8461 10:15.2652 11:35.3828 12:13.1229 
9.241119051884928 1:16.7084 2:24.3404 3:26.9697 4:19.0059 5:16.4545 6:-0.1019 7:5.1048 8:9.6054 9:15.8461 10:15.2652 11:35.3828 12:13.1229 
1.147977705142103 1:31.558 2:20.2978 3:31.8198 4:12.297 5:44.9233 6:3.1153 7:5.1048 8:35.1013 9:25.24 10:17.3369 11:51.7032 12:51.7032 
1.590375731719181 1:3.8505 2:3.7503 3:12.0136 4:12.0136 5:9.798 6:13.8001 7:28.8421 8:20.0809 9:3.182 10:5.9088 11:35.3828 12:13.1229 
0.77524937762642 1:44.5477 2:28.7569 3:25.0555 4:32.8805 5:67.6954 6:6.9667 7:15.5347 8:44.9081 9:55.9723 10:6.5517 11:-0.1762 12:14.33 
0.2685821603893354 1:44.5477 2:28.7569 3:25.0555 4:32.8805 5:67.6954 6:6.9667 7:15.5347 8:44.9081 9:4.2691 10:4.2691 11:4.5544 12:14.33 
0.6500060189039405 1:6.4718 2:1.1853 3:6.3709 4:2.0343 5:28.2375 6:13.8001 7:28.8421 8:24.0833 9:0.5303 10:4.4336 11:3.7947 12:11.3842 
-0.5704894525235609 1:-0.5883 2:6.9714 3:-0.8581 4:32.8805 5:-0.8581 6:3.1153 7:-1.9039 8:-0.8018 9:8.7883 10:0.905 11:-0.3162 12:-0.4743 
-1.978533884884312 1:2.2883 2:-2.0343 3:-0.8581 4:-0.4743 5:-1.0279 6:0.43 7:-2.4706 8:2.846 9:-0.2587 10:3.5355 11:-0.3162 12:-0.6211 
-0.7513315963846385 1:3.047 2:-1.1116 3:0.3162 4:-0.6211 5:1.1767 6:-1.1405 7:5.1048 8:-1.7897 9:13.0788 10:-1.5213 11:0 12:-0.8503 
-0.1375084997086342 1:1.8974 2:20.2978 3:-0.4936 4:-0.905 5:-0.8581 6:3.1153 7:-3.3917 8:-0.4445 9:-0.8503 10:-0.8706 11:-0.5721 12:-0.3162 
-0.8163061392751496 1:-0.4743 2:-1.2197 3:-0.2397 4:12.0136 5:1.5855 6:3.1153 7:-2.4706 8:-0.9487 9:-1.1988 10:-1.7321 11:-1.0279 12:-0.4743 
-0.5739519163551526 1:0.7071 2:-1.0386 3:16.9794 4:16.2184 5:28.2375 6:13.8001 7:-10.07 8:-0.7071 9:-0.5721 10:-0.6211 11:-1.271 12:-1.5791 
-1.64807662059435 1:-0.7746 2:-0.7071 3:1.8974 4:19.0059 5:-1.0386 6:-2.6126 7:-2.4706 8:-0.9487 9:-1.0607 10:5.9088 11:3.1629 12:-0.4743 
-1.363992817994918 1:-0.5721 2:1.1853 3:-0.1355 4:-0.6211 5:16.4545 6:-0.1019 7:-3.4201 8:-0.6608 9:-1.0386 10:-0.4743 11:0 12:-1.9535 
-0.3381135943411637 1:-0.4743 2:-0.5883 3:-2.6905 4:-0.7071 5:-0.4743 6:0.43 7:15.5347 8:44.9081 9:-0.4445 10:-1.2247 11:1.1062 12:-2.5487 
-0.967440514398467 1:-0.4743 2:-0.5721 3:-3.067 4:6.0083 5:4.4943 6:-1.1405 7:-10.07 8:-1.6481 9:-0.7071 10:11.2746 11:0.8581 12:-0.4743 
-1.944812768153804 1:0.2176 2:-1.1818 3:2.846 4:-1.1062 5:4.4943 6:-1.1405 7:-3.4513 8:-1.5325 9:-0.3162 10:-1.0279 11:-0.2176 12:-0.8433 
-0.3986204194812189 1:1.8974 2:-0.4743 3:-1.2563 4:-0.1142 5:-0.4445 6:-4.0597 7:-3.4809 8:-0.9487 9:-0.8503 10:15.2652 11:35.3828 12:4.2691 
-0.7572426947042016 1:-0.7746 2:1.4908 3:-0.8581 4:-0.6211 5:0.7746 6:-1.1405 7:-3.3917 8:0.5145 9:-1.6481 10:4.0666 11:3.6742 12:-0.5582 
-0.6273122455630557 1:-1.8974 2:-1.5 3:1.8974 4:16.2369 5:4.2426 6:0.43 7:28.8421 8:-0.8874 9:-1.6481 10:-3.4785 11:-1.4908 12:5.4524 
-2.210280366052584 1:-2.846 2:-1.5213 3:-0.9487 4:-0.7379 5:28.2375 6:13.8001 7:-3.4809 8:-1.0849 9:-1.0142 10:0.5145 11:0.4743 12:-0.4445 
-1.448806105621704 1:-0.6211 2:-0.4743 3:1.8974 4:16.2369 5:18.7409 6:13.8001 7:28.8421 8:31.1359 9:8.7883 10:0.905 11:0.7746 12:14.0903 
-1.20540508917186 1:16.0262 2:-1.1116 3:-1.2649 4:0 5:9.798 6:13.8001 7:28.8421 8:31.1359 9:13.0788 10:9.7223 11:35.3828 12:-0.8433 
-1.668001829342408 1:16.0262 2:7.8525 3:1.8974 4:16.2369 5:4.4943 6:-1.1405 7:28.8421 8:31.1359 9:8.7883 10:11.2746 11:-0.8581 12:-0.4743 
-0.6936315068171135 1:16.0262 2:-1.1116 3:-1.2649 4:17.017 5:18.7409 6:13.8001 7:-3.4809 8:-1.792 9:-1.3672 10:1.1619 11:-1.3631 12:-0.4743 
-0.4000948682761552 1:-3.1514 2:-2.2883 3:-1.4636 4:-2.5895 5:-2 6:6.9667 7:28.8421 8:1.1062 9:-1.3586 10:-1.6183 11:-1.6218 12:14.0903 
-0.5082595965166074 1:0.2176 2:-1.6785 3:-0.9115 4:-1.2197 5:0.3644 6:-2.7285 7:5.1048 8:-2.2531 9:0.2535 10:-0.6076 11:0.5883 12:51.7032 
-0.1396214865662183 1:-1.3111 2:-0.3162 3:-0.4445 4:32.8805 5:-1.2728 6:-2.6126 7:-3.638 8:-1.5 9:5.5895 10:0.4445 11:-0.7746 12:-1.0607 
-0.823678936260823 1:31.558 2:-1.3059 3:6.3709 4:-0.8581 5:-0.3644 6:-2.089 7:15.5347 8:-1.5213 9:-2.2883 10:0.4445 11:-1.5632 12:13.1229 
-0.4768630032124687 1:-1.3111 2:-0.9487 3:-0.7071 4:-0.9487 5:-0.1627 6:-2.7285 7:-3.4809 8:-1.6214 9:10.3523 10:0.905 11:0.7746 12:3.047 
-0.4118857270736258 1:-0.7746 2:-0.4743 3:2.846 4:-1.4491 5:2.2883 6:-4.1295 7:5.1048 8:35.1013 9:-1.3059 10:-1.1619 11:3.5758 12:-3.047 
-0.4886079114331026 1:-1.4055 2:-1.7435 3:-1.8637 4:-0.7379 5:-1.5941 6:6.9667 7:-4.3331 8:-1.0142 9:-1.0607 10:5.9088 11:35.3828 12:-1.0607 
-0.1250261568874452 1:-0.4445 2:-0.5721 3:-0.8706 4:-0.2535 5:2.846 6:13.8001 7:5.1048 8:0.9487 9:0.5721 10:6.5517 11:3.6742 12:-1.4767 
-0.3077422939548858 1:-3.087 2:-3.7373 3:-2.319 4:-3.9622 5:-1.9378 6:-2.089 7:15.5347 8:44.9081 9:1.1818 10:-2.4449 11:-0.6211 12:-1.2468 
-1.96913005831664 1:16.0262 2:7.8525 3:1.8974 4:16.2369 5:18.7409 6:13.8001 7:28.8421 8:31.1359 9:13.0788 10:9.7223 11:35.3828 12:14.0903 
-2.073129776183365 1:5.1088 2:2.2778 3:8.4938 4:16.2369 5:18.7409 6:13.8001 7:28.8421 8:24.0833 9:10.3523 10:11.2746 11:35.3828 12:14.0903 
-1.227208715191608 1:16.0262 2:20.2978 3:8.4938 4:16.2184 5:28.2375 6:13.8001 7:28.8421 8:31.1359 9:8.7883 10:11.2746 11:35.3828 12:14.0903 
-2.187307516056205 1:16.0262 2:20.2978 3:8.4938 4:16.2369 5:9.1924 6:3.1842 7:28.8421 8:24.0833 9:10.3523 10:11.2746 11:35.3828 12:14.0903 
-1.269986536983982 1:16.0262 2:20.2978 3:12.0748 4:1.4491 5:28.2375 6:13.8001 7:28.8421 8:31.1359 9:8.7883 10:11.2746 11:35.3828 12:17.6523 
-4.454205690829439 1:14.3688 2:20.2978 3:8.4938 4:16.2369 5:18.7409 6:13.8001 7:28.8421 8:31.1359 9:8.7883 10:0.905 11:-2.846 12:-0.7379 
-0.7473095303677237 1:-0.5721 2:-0.8706 3:-0.3162 4:16.2369 5:18.7409 6:13.8001 7:28.8421 8:24.0833 9:10.3523 10:11.2746 11:35.3828 12:17.6523 
-2.017608073501614 1:-1.7196 2:20.2978 3:8.4938 4:16.2184 5:28.2375 6:13.8001 7:28.8421 8:31.1359 9:8.7883 10:18.4674 11:18.4033 12:14.0903 
-1.417579207652408 1:14.3688 2:28.7569 3:16.9794 4:16.2369 5:18.7409 6:13.8001 7:28.8421 8:31.1359 9:-0.7071 10:-0.8581 11:18.4033 12:-1.4661 
-0.9280011123636863 1:16.0262 2:28.7569 3:16.9794 4:16.2369 5:0.3644 6:-2.7285 7:28.8421 8:-0.414 9:-0.7379 10:-0.9487 11:-0.6211 12:13.1229 
-5.03234567631871 1:3.047 2:-1.0627 3:-0.6211 4:-0.6211 5:-0.4743 6:-1.765 7:28.8421 8:20.0809 9:0.2535 10:-1.0371 11:-0.8503 12:-2.1727 
-2.692228562210241 1:0.3644 2:-1.0142 3:-0.5721 4:0 5:-1.0142 6:-5.5895 7:-3.4809 8:-1.0849 9:6.0827 10:0.5145 11:-0.4743 12:-1.5791 
-6.595552078501104 1:2.846 2:-0.5721 3:3.0984 4:0 5:-0.6608 6:-1.1405 7:-3.4809 8:-0.9487 9:-0.3162 10:-0.4743 11:-2.1711 12:3.047 
-0.7689279453939318 1:-0.5883 2:-0.4196 3:0.0909 4:-1.2649 5:-1.0279 6:0.43 7:-4.3331 8:-0.5582 9:-1.2649 10:11.2746 11:3.6742 12:5.4524 
-1.053478300566966 1:2.7937 2:-0.7071 3:3.4325 4:-1.2649 5:0.5721 6:13.8001 7:28.8421 8:-1.1062 9:-0.9487 10:-0.9487 11:0.7071 12:1.6218 
-0.8505055274916474 1:14.3688 2:-1.6036 3:-0.3162 4:0 5:-1.0279 6:0.43 7:-1.9667 8:-0.4743 9:55.9723 10:6.5517 11:35.3828 12:0 
-2.895646844016213 1:-0.3162 2:-0.3162 3:0.866 4:-0.1762 5:-0.5721 6:0 7:-10.07 8:-1.3582 9:8.7883 10:-0.4629 11:1.2649 12:2.2883 
-1.915398829365896 1:-0.7746 2:-0.7071 3:3.0984 4:-0.9487 5:-0.5721 6:6.9667 7:28.8421 8:31.1359 9:2.789 10:-1.5213 11:-0.8581 12:-0.9487 
-0.6843555307243419 1:0 2:-0.6211 3:12.0748 4:-0.3162 5:-0.7071 6:0.43 7:-1.9667 8:-0.4743 9:-1.4884 10:-1.5213 11:3.6742 12:5.4524 
-5.120073824202272 1:5.1088 2:-0.7071 3:-1.0371 4:-0.1762 5:-0.5721 6:0 7:-3.3917 8:-1.3887 9:6.0827 10:6.5517 11:0.8581 12:-0.7746 
-1.096776836353597 1:0.3693 2:-0.3162 3:3.5193 4:-0.4243 5:-1.3024 6:13.8001 7:28.8421 8:3.5193 9:-0.3162 10:11.2746 11:-0.4743 12:-1.2272 
-4.775056476694744 1:-0.6211 2:5.4334 3:0 4:3.5193 5:0.8581 6:3.1842 7:-3.638 8:0.7746 9:-1.7897 10:0.7746 11:0 12:-0.4445 
-0.1102492919279468 1:2.789 2:-0.8581 3:8.4938 4:5.0349 5:-3.5355 6:13.8001 7:-3.3917 8:-1.3887 9:1.6602 10:-0.6211 11:0.7071 12:-1.5 
-1.061186009491359 1:-0.6211 2:-1.2247 3:8.4938 4:5.0349 5:-3.5355 6:13.8001 7:28.8421 8:31.1359 9:8.7883 10:11.2746 11:1.4576 12:0.3693 
-0.8704680378424275 1:0.7071 2:2.4842 3:8.4938 4:16.2369 5:-0.7746 6:-1.2272 7:28.8421 8:3.5193 9:-0.4743 10:-0.4743 11:-2.4706 12:-3.0305 
-0.6796233324784736 1:5.1088 2:2.2778 3:-1.9106 4:-1.3703 5:18.7409 6:13.8001 7:-3.638 8:-1.0371 9:-0.6211 10:-1.1818 11:-0.5112 12:-1.0279 
-10 1:16.7084 2:24.3404 3:26.9697 4:19.0059 5:16.4545 6:-0.1019 7:5.1048 8:9.6054 9:15.8461 10:15.2652 11:35.3828 12:13.1229 
-9.489880719110417 1:-1.7196 2:0.5582 3:2.846 4:-0.7379 5:-0.7379 6:-1.7391 7:-3.4809 8:-0.3162 9:-0.4445 10:0.5145 11:3.1629 12:-0.7071 
-0.5371869066128484 1:0.9487 2:-1.6036 3:-0.972 4:-1.2872 5:-1.8474 6:-3.1108 7:28.8421 8:31.1359 9:13.0788 10:-0.7071 11:-0.7379 12:-1.0279 
-1.277163160821598 1:14.3688 2:20.2978 3:0 4:3.5193 5:0.143 6:3.1153 7:-9.75 8:-0.9487 9:6.0827 10:6.5517 11:0.8581 12:-0.6211 
-0.825752615363357 1:-2.1711 2:20.2978 3:0.0909 4:-1.1853 5:-0.6211 6:13.8001 7:-1.9667 8:-0.3162 9:8.7883 10:18.4674 11:18.4033 12:14.0903 
-0.7719546837254904 1:16.0262 2:-1.1116 3:-0.4743 4:0 5:1.1619 6:-5.5895 7:-3.638 8:-0.3487 9:2.789 10:0 11:-0.4743 12:-0.7071 
-0.8255660302694321 1:16.0262 2:7.8525 3:1.8974 4:16.2369 5:18.7409 6:13.8001 7:-10.07 8:-1.3582 9:8.7883 10:1.1619 11:0 12:14.0903 
-0.8590639353370722 1:-1.7265 2:-0.6211 3:-0.4743 4:0.8581 5:18.7409 6:13.8001 7:-10.07 8:-1.3582 9:8.7883 10:18.4674 11:18.4033 12:14.0903 
-0.7025810704590703 1:-1.2511 2:6.9714 3:-1.2197 4:3.5193 5:-2.1711 6:-5.5895 7:-3.4809 8:-1.6214 9:10.3523 10:11.2746 11:35.3828 12:14.0903 
-0.8446454443921712 1:0.3707 2:-1.0386 3:16.9794 4:16.2369 5:-0.905 6:-0.1019 7:-3.638 8:-0.9939 9:-1.2563 10:-1.1068 11:51.7032 12:-0.3162 
-0.9465878258781635 1:-2.9698 2:-0.4743 3:-1.6602 4:-1.5 5:-0.3162 6:-1.1405 7:28.8421 8:24.0833 9:10.3523 10:-0.8549 11:-0.6404 12:-0.8706 
-1.800016238804553 1:-1.4491 2:-1.7437 3:-1.2247 4:0.3939 5:28.2375 6:13.8001 7:28.8421 8:0.2535 9:-1.1619 10:0.4743 11:-0.8581 12:5.4524 
-2.178014644852224 1:2.1213 2:5.4334 3:-1.5213 4:0.1142 5:0.1936 6:-2.6126 7:28.8421 8:24.0833 9:10.3523 10:0.3162 11:-1.0462 12:6.6408 
-1.141404188684113 1:-2.9698 2:-0.4743 3:-1.5325 4:-0.9487 5:28.2375 6:13.8001 7:28.8421 8:-0.8874 9:-1.0607 10:-2.4449 11:2.846 12:4.6591 
-3.607799767530681 1:3.7485 2:6.9714 3:5.1487 4:-1.3416 5:1.3059 6:3.1153 7:28.8421 8:24.0833 9:10.3523 10:-0.8549 11:-0.1627 12:1.8376 
-1.022099141307236 1:14.3688 2:-1.0627 3:-1.1619 4:3.0984 5:0.143 6:3.1153 7:28.8421 8:-0.8874 9:-1.3703 10:0.414 11:-0.8581 12:5.4524 
-0.2490331378851326 1:14.3688 2:-1.271 3:-0.6211 4:-0.4445 5:-0.7115 6:-2.4335 7:28.8421 8:0.2535 9:-1.1619 10:-0.8372 11:2.846 12:4.6591 
-1.014370111901978 1:3.7485 2:6.9714 3:5.1487 4:0.9487 5:-1.0386 6:-2.6126 7:28.8421 8:-0.8874 9:-1.6481 10:-1.1068 11:-1.2649 12:1.0462 
-0.922212358183207 1:14.3688 2:-1.271 3:-0.9115 4:-1.2563 5:44.9233 6:3.1153 7:-3.638 8:1.6562 9:0.6037 10:-0.5721 11:-2.5187 12:-0.905 
-1.838151732632094 1:16.7084 2:-0.8581 3:4.7434 4:-0.6211 5:-1.0279 6:-2.089 7:-2.4706 8:-0.6211 9:-0.7746 10:1.3887 11:2.846 12:4.6591 
-0.3867825507093868 1:-1.8974 2:-1.5435 3:-0.4743 4:-1.2649 5:-0.6211 6:-1.7091 7:-9.75 8:-0.6211 9:-0.4743 10:-0.5721 11:-0.2176 12:17.6523 
-0.7179681822570584 1:2.1301 2:6.9714 3:-1.2247 4:-0.1762 5:-1.6985 6:-2.7285 7:-4.3331 8:-1.1619 9:-0.3162 10:-1.0371 11:-1.7541 12:1.4661 
-1.238020604784288 1:0.3707 2:-0.8581 3:-0.8503 4:-1.2649 5:0.5721 6:13.8001 7:28.8421 8:24.0833 9:6.0083 10:-1.057 11:-0.4743 12:-0.5721 
-0.7707457272051962 1:-0.3162 2:-1.271 3:4.7434 4:16.2184 5:28.2375 6:13.8001 7:15.5347 8:-0.9487 9:1.8974 10:0 11:-0.4743 12:-0.6211 
-0.4717641770936876 1:5.5962 2:-0.7746 3:-0.8503 4:-0.8503 5:0.9487 6:-4.0597 7:5.1048 8:35.1013 9:-0.7379 10:-0.4743 11:-0.7071 12:-1.0279 
-0.7809210990780379 1:-2.0023 2:-0.9167 3:-1.2728 4:0.3721 5:67.6954 6:6.9667 7:-3.4513 8:-0.7115 9:-0.4445 10:-0.9007 11:-0.7746 12:11.3842 
-0.2514748469770753 1:-1.2511 2:6.9714 3:0.8581 4:-0.8503 5:1.3059 6:3.1153 7:15.5347 8:-0.4743 9:-0.972 10:-0.8372 11:-1.2197 12:-0.7071 
-0.6354684578433999 1:0.9487 2:2.5187 3:25.0555 4:-0.8581 5:-1.2563 6:-1.1405 7:-3.4201 8:2.846 9:-0.7746 10:0.414 11:-0.3162 12:-0.4743 
-0.2738494892825598 1:-0.8581 2:6.9714 3:5.1487 4:-1.0371 5:-0.8503 6:-2.089 7:-10.07 8:-1.0279 9:-0.8581 10:-1.0142 11:-0.9487 12:-1.7428 
-0.276868996732046 1:3.7485 2:6.9714 3:-0.7071 4:0 5:-2 6:6.9667 7:-3.4201 8:2.846 9:0 10:-0.7071 11:-0.6211 12:-0.3162 
-4.151802127938846 1:2.846 2:2.846 3:-0.8581 4:-0.4743 5:-0.4743 6:-4.1295 7:-3.4513 8:-0.2798 9:-0.9487 10:0 11:-0.4743 12:-0.9487 
-0.5073318328089405 1:-0.6211 2:-0.4743 3:-1.0371 4:-0.4743 5:-0.4743 6:-2.7285 7:-3.4201 8:-1.0371 9:-0.4445 10:-0.6211 11:-0.4743 12:51.7032 
-0.8237719728515306 1:3.0984 2:24.3404 3:-0.4743 4:0 5:-0.8706 6:-2.7285 7:5.1048 8:-1.271 9:1.4491 10:1.8974 11:35.3828 12:0 
-0.6988848830523388 1:-1.2247 2:-0.7746 3:26.9697 4:-0.6211 5:0.7746 6:-4.1295 7:15.5347 8:-1.1619 9:-0.7071 10:-1.4491 11:-1.1619 12:-0.3162 
-0.6208633956366521 1:-0.4743 2:6.9714 3:5.1487 4:-1.1853 5:-0.4445 6:-2.4335 7:28.8421 8:1.1062 9:1.5 10:0.5145 11:-0.4743 12:-0.905 
-0.1145952392711027 1:-2.1232 2:-1.8184 3:-1.8273 4:-0.1142 5:-0.4743 6:-0.1019 7:5.1048 8:9.6054 9:-1.591 10:-2.4449 11:-1.4643 12:-0.2657 
-0.593136706291875 1:1.8974 2:-1.271 3:-1.1818 4:-1.2872 5:18.7409 6:13.8001 7:28.8421 8:-1.1062 9:-1.3672 10:1.1619 11:0 12:17.6523 
-0.4338202742439347 1:14.3688 2:-1.6036 3:-0.3162 4:3.0984 5:2.846 6:13.8001 7:-10.07 8:-3.1865 9:4.2691 10:-0.6211 11:-0.7379 12:-1.3887 
-0.8462289876199981 1:-1.2563 2:-1.0371 3:1.8974 4:1.4491 5:28.2375 6:13.8001 7:15.5347 8:-1.0371 9:-1.2649 10:-1.0371 11:1.0371 12:-0.3162 
-0.784815444305953 1:-0.3162 2:-0.9167 3:-1.5 4:2.57 5:67.6954 6:6.9667 7:15.5347 8:-0.8503 9:-1.539 10:-1.0279 11:-1.0279 12:-0.3162 
-0.3487785929503999 1:6.4718 2:-0.8581 3:-1.1818 4:-1.4661 5:-3.2258 6:-0.1019 7:-10.07 8:-0.8018 9:-2.1301 10:4.0666 11:35.3828 12:0.8178 
-0.8650376865968243 1:1.1619 2:20.2978 3:12.0748 4:-0.6211 5:-0.8178 6:-4.1295 7:-2.4706 8:-0.3162 9:-0.4743 10:-0.7115 11:1.2649 12:17.6523 
-0.8376234216946082 1:-2.1232 2:-1.8184 3:-1.8273 4:12.297 5:-3.2258 6:-0.1019 7:5.1048 8:9.6054 9:15.8461 10:-1.4142 11:-1.85 12:-1.9535 
-10 1:16.7084 2:24.3404 3:26.9697 4:19.0059 5:16.4545 6:-0.1019 7:5.1048 8:9.6054 9:15.8461 10:15.2652 11:35.3828 12:13.1229 
-0.4379141160746786 1:-1.1068 2:-1.271 3:-1.1818 4:-0.6568 5:-1.9588 6:-2.4335 7:5.1048 8:-1.271 9:-1.2649 10:0.8706 11:1.1062 12:14.33 
-0.3632829574786778 1:-2.1232 2:-1.8184 3:-1.8273 4:12.297 5:-3.2258 6:-0.1019 7:5.1048 8:9.6054 9:-1.591 10:-2.4449 11:-1.4643 12:-0.2657 
-3.330504889274876 1:0 2:0 3:8.4938 4:2.57 5:-1.271 6:-0.1019 7:-3.638 8:-1.1212 9:-0.2587 10:-1.1062 11:-2.2539 12:1.8676 
-2.347444790983732 1:0 2:0 3:8.4938 4:2.57 5:-1.271 6:-0.1019 7:-3.638 8:-1.1212 9:-0.2587 10:-1.1062 11:-1.6048 12:-1.4678 
-0.5151909748155519 1:14.3688 2:28.7569 3:16.9794 4:16.2184 5:-0.4445 6:3.1153 7:5.1048 8:35.1013 9:-1.3059 10:0.3644 11:-0.7746 12:-1.2247 
-0.195691731040057 1:-0.0909 2:-0.4196 3:-0.9946 4:-2.4449 5:-0.8581 6:3.1153 7:28.8421 8:24.0833 9:0.5303 10:-3.4785 11:-2.1213 12:-1.2247 
-0.7238531951664928 1:1.4491 2:-0.8184 3:-0.9946 4:-2.4449 5:-3.6995 6:-2.7285 7:-10.07 8:-2.5703 9:-2.0266 10:3.6285 11:18.4033 12:1.1619 
-1.935404411575521 1:-1.2247 2:-0.6211 3:-0.8581 4:-1.0279 5:-0.6076 6:-2.7285 7:28.8421 8:24.0833 9:10.3523 10:18.4674 11:6.1398 12:1.0462 
-0.6834460466512347 1:-1.5435 2:-2.2883 3:16.9794 4:16.2184 5:28.2375 6:13.8001 7:-4.3331 8:2.2883 9:-1.7428 10:-1.4908 11:-1.1212 12:4.6591 
-0.3576078944294663 1:14.3688 2:28.7569 3:16.9794 4:16.2184 5:-0.4445 6:3.1153 7:5.1048 8:35.1013 9:-1.3059 10:-0.8372 11:-1.3059 12:-1.2247 
-0.3517162834078945 1:-1.8974 2:-0.4743 3:-1.2563 4:-0.8581 5:-2.0649 6:-2.7285 7:-4.3331 8:2.2883 9:10.3523 10:18.4674 11:6.1398 12:-2.0272 
-1.553443155754273 1:-0.9487 2:-1.2247 3:-0.8581 4:2.0343 5:-0.4445 6:3.1153 7:28.8421 8:24.0833 9:0.5303 10:-3.4785 11:-2.1711 12:-0.8433 
-4.691931673420688 1:2.1213 2:-1.4908 3:-1.1619 4:0.8699 5:28.2375 6:13.8001 7:-4.3331 8:-1.1619 9:-1.2649 10:-1.6602 11:-1.3703 12:-0.3408 
-0.4287954646110536 1:0.2176 2:2.846 3:-0.3162 4:19.0059 5:-0.5721 6:-2.089 7:5.1048 8:0.9487 9:-1.2272 10:15.2652 11:3.1629 12:-1.0279 
